<?xml version="1.0"?>
<opencv_storage>
<opencv_ml_ann_mlp>
  <format>3</format>
  <layer_sizes>
    784 128 64 10</layer_sizes>
  <activation_function>SIGMOID_SYM</activation_function>
  <f_param1>1.</f_param1>
  <f_param2>1.</f_param2>
  <min_val>-9.4999999999999996e-01</min_val>
  <max_val>9.4999999999999996e-01</max_val>
  <min_val1>-9.7999999999999998e-01</min_val1>
  <max_val1>9.7999999999999998e-01</max_val1>
  <training_params>
    <train_method>BACKPROP</train_method>
    <dw_scale>1.0000000000000000e-03</dw_scale>
    <moment_scale>1.0000000000000001e-01</moment_scale>
    <term_criteria>
      <epsilon>1.0000000000000000e-02</epsilon>
      <iterations>1000</iterations></term_criteria></training_params>
  <input_scale>
    1. 0. 1. 0. 1. 0. 1. 0. 1. 0. 1. 0. 1. 0. 1. 0. 1. 0. 1. 0. 1. 0. 1.
    0. 5.3648089601031472e+02 -4.4180780035878615e-03
    1.8733774383330552e+02 -5.7548196110001025e-03
    2.8917827912884053e+02 -4.0825169257547667e-03
    6.9402784549102953e+03 -4.0825169257547667e-03 1. 0. 1. 0. 1. 0. 1.
    0. 1. 0. 1. 0. 1. 0. 1. 0. 1. 0. 1. 0. 1. 0. 1. 0. 1. 0. 1. 0. 1. 0.
    1. 0. 3.9039065793799291e+03 -4.0825169257547667e-03
    1.3101496181268840e+03 -4.7096882957418460e-03
    2.4170555661572348e+02 -8.7993464003812156e-03
    1.2171280219459351e+02 -1.1590559163787754e-02
    8.6089359193337074e+01 -1.4758979878597188e-02
    7.6718219273647634e+01 -1.9284854722948250e-02
    5.2369380879591176e+01 -2.4671797567120807e-02
    4.6120563044168556e+01 -2.9071027211066414e-02
    4.4786878460768051e+01 -3.0592658412926032e-02
    4.4787656333604353e+01 -3.1164012851993019e-02
    4.3052375530710435e+01 -3.1962872072097276e-02
    4.4224211811248360e+01 -3.0202535635168715e-02
    4.2710977315808599e+01 -3.1310217614785599e-02
    4.7105537951617727e+01 -2.8383396132158473e-02
    5.8885235955553128e+01 -2.3119190743491249e-02
    6.8612394577963698e+01 -1.9166626047137380e-02
    7.9472344018885167e+01 -1.6772300826249399e-02
    1.3123581002788268e+02 -1.0996360185098215e-02
    2.1052953089211195e+02 -8.3248607972167977e-03
    3.1615382190904126e+02 -4.3806935526371849e-03 1. 0. 1. 0. 1. 0. 1.
    0. 1. 0. 1. 0. 9.7597664484498227e+02 -4.0825169257547667e-03
    1.9654474500613208e+03 -5.3953459858502402e-03
    3.1269281164948018e+02 -8.5224122716123403e-03
    5.5735882228722335e+02 -1.1985036320239759e-02
    9.5576151789615537e+01 -1.7653477825358348e-02
    5.1056930164178773e+01 -2.7710899055215305e-02
    3.5733230559056175e+01 -3.7020094475901343e-02
    2.6249780508148806e+01 -5.2151280432312361e-02
    1.9721078691808820e+01 -6.7036200977379556e-02
    1.6409286549080885e+01 -8.3017048703456608e-02
    1.3549186342660247e+01 -9.9379298193932500e-02
    1.1609696744810909e+01 -1.1518412819176357e-01
    1.0285110111076740e+01 -1.2913325665555714e-01
    9.7338727394767943e+00 -1.3839467778572026e-01
    9.5151757314514303e+00 -1.3888363126273645e-01
    9.9099722698638910e+00 -1.3184343867851445e-01
    1.0956210590093917e+01 -1.2042952276999193e-01
    1.2709041411674468e+01 -1.0189079519288578e-01
    1.6674130696362294e+01 -7.8604904641684514e-02
    2.2944006927855842e+01 -5.6995613250721576e-02
    3.4145332390673552e+01 -3.9657684022977056e-02
    6.4380972289955125e+01 -2.3728386197652593e-02
    1.0201216064042070e+02 -1.4088346403922682e-02
    2.3129702595552419e+02 -7.8308406660807534e-03 1. 0. 1. 0. 1. 0. 1.
    0. 4.2338233222320622e+02 -5.3683775164463359e-03
    3.8666742348304632e+02 -8.8706059090845110e-03
    2.9859014774801244e+02 -1.4070817030805434e-02
    8.0947487658522121e+01 -2.2146809867850625e-02
    4.2299103006120951e+01 -3.5180136973244715e-02
    2.5693166624632646e+01 -5.5023680434794296e-02
    1.7471606281948510e+01 -7.9096132486633566e-02
    1.2387967826839686e+01 -1.0764901291939635e-01
    9.6104002962409627e+00 -1.3716993626751239e-01
    7.8359633636656172e+00 -1.6710576206380734e-01
    6.7479269336820620e+00 -1.9600875625047062e-01
    5.9035586020770170e+00 -2.2449111454187792e-01
    5.3359280153182747e+00 -2.4865599235127445e-01
    5.0493488363958932e+00 -2.6211797157803446e-01
    5.1020316277747826e+00 -2.6259690263220598e-01
    5.3500796218594200e+00 -2.4785590409543781e-01
    5.9302663542669949e+00 -2.2194700403229387e-01
    6.9559318179997014e+00 -1.8721140566259786e-01
    8.9774380797173094e+00 -1.4764013220829042e-01
    1.2125871950158762e+01 -1.0816436426260549e-01
    1.8460389166583141e+01 -7.6812111961473944e-02
    2.9061171573651848e+01 -4.7075299817748793e-02
    4.7515691261457995e+01 -3.0201967712070305e-02
    1.3997060017124366e+02 -1.5241243557476001e-02
    4.8119589386801294e+02 -5.2837196625275355e-03 1. 0. 1. 0.
    1.6437501695049459e+03 -4.0825169257547658e-03
    3.7948999124808012e+02 -7.7634229880172686e-03
    2.6465364956065173e+02 -1.4893254778498660e-02
    7.5547100132842345e+01 -2.3962750593807168e-02
    3.1293045517732885e+01 -5.0340898280189013e-02
    1.9253319487654689e+01 -7.8767470638240050e-02
    1.2245896133246163e+01 -1.1618154082631563e-01
    8.6097739388774102e+00 -1.6124756268211621e-01
    6.4388293629673141e+00 -2.1196163624500775e-01
    5.1132841711993935e+00 -2.6689873233519090e-01
    4.2638297890357677e+00 -3.2567801164512661e-01
    3.6806139544727343e+00 -3.9024154964529489e-01
    3.2738534965497990e+00 -4.5207637767453540e-01
    3.0435958433804271e+00 -4.9939798584797257e-01
    2.9495370808173877e+00 -5.2342832611087087e-01
    2.9769122738174585e+00 -5.1761889653133042e-01
    3.1329988028508930e+00 -4.8090242105578862e-01
    3.4437108985095328e+00 -4.2307969572253151e-01
    3.9682893262328145e+00 -3.5674039635689764e-01
    4.8775705226929116e+00 -2.8368364956985076e-01
    6.3838811405214022e+00 -2.1683666225361695e-01
    8.8883053626105912e+00 -1.5852438094871815e-01
    1.2980744765268748e+01 -1.0878458180989357e-01
    2.0958680168932609e+01 -7.0922531196939281e-02
    4.7812936951348171e+01 -3.8953481956109211e-02
    1.2257531590987458e+02 -1.4252385185312388e-02
    7.2367721439515208e+02 -5.7704980649312702e-03 1. 0. 1. 0.
    2.9417871540563647e+02 -1.1901740571867412e-02
    8.8757532139417663e+01 -2.2050156045995403e-02
    3.3425595655991053e+01 -5.1838075220759387e-02
    1.5797611144504913e+01 -9.0659703953055240e-02
    9.9267732325844857e+00 -1.3966710617956615e-01
    6.9531288054011107e+00 -1.9708212142090495e-01
    5.1791888093859644e+00 -2.6438472877765856e-01
    4.0949478367254004e+00 -3.4073044304775724e-01
    3.4204840343450540e+00 -4.2253575084186085e-01
    2.9730831654946930e+00 -5.1540865072114705e-01
    2.6668716473145091e+00 -6.1603532954457296e-01
    2.4737869050523331e+00 -7.1598329994436671e-01
    2.3794854760962667e+00 -7.9412046946133519e-01
    2.3503097988593207e+00 -8.3504925635580662e-01
    2.3634512455510617e+00 -8.2418581501601362e-01
    2.4260536770784915e+00 -7.6283928686585112e-01
    2.5775767509617884e+00 -6.6655950118818852e-01
    2.8486228331443502e+00 -5.5625040028500872e-01
    3.3231497757785200e+00 -4.4764565589238675e-01
    4.1210727967563585e+00 -3.4762461555368174e-01
    5.3682591316137893e+00 -2.6084090780568092e-01
    7.3094126115109832e+00 -1.9030605405482484e-01
    1.1168926550406491e+01 -1.3108013024346532e-01
    2.2622369636117178e+01 -7.4846037679501431e-02
    5.7487757691238450e+01 -3.1930129200937823e-02
    4.4537747239005859e+02 -8.2089183482417123e-03 1. 0.
    7.7475761849239916e+03 -5.5701529617163117e-03
    1.4522877585739832e+02 -1.5661927109954732e-02
    4.1878262883200854e+01 -3.6365660799255094e-02
    1.7999909142227235e+01 -7.9024308297724138e-02
    1.0331230932898812e+01 -1.3328908680027177e-01
    6.8290999672482995e+00 -1.9915441154090080e-01
    4.9272088983420650e+00 -2.7542969256552524e-01
    3.8384135058740849e+00 -3.6333594751041953e-01
    3.1668069885399324e+00 -4.6308053479389188e-01
    2.7597555957407991e+00 -5.7484519127083211e-01
    2.5128741893339548e+00 -6.9880387586332815e-01
    2.3671697816662784e+00 -8.2877368728986567e-01
    2.2969091330304900e+00 -9.5689205221335294e-01
    2.2733047872684260e+00 -1.0564726445619259e+00
    2.2700029602873086e+00 -1.1047183133689411e+00
    2.2700798035254794e+00 -1.0835076143940101e+00
    2.2737221268619314e+00 -9.9895165037964051e-01
    2.3209344948971462e+00 -8.7474762749777191e-01
    2.4580832860573358e+00 -7.2455973761129977e-01
    2.7398668240292201e+00 -5.8060590051791761e-01
    3.2651479905893215e+00 -4.5215876562125606e-01
    4.1219458100688380e+00 -3.3932343243838997e-01
    5.5475302010118375e+00 -2.4893037380193136e-01
    8.1851398042212065e+00 -1.7293970228860725e-01
    1.4306326443527240e+01 -1.0410424081705541e-01
    3.3058742626084744e+01 -4.8317622140315382e-02
    1.2378034910308999e+02 -1.4708018335971802e-02
    1.3289895241960487e+03 -4.0825169257547667e-03
    1.7097503105993474e+02 -1.3231009297387382e-02
    6.2156417289230625e+01 -2.6243821063207492e-02
    2.5326014435452908e+01 -5.9158591101620160e-02
    1.2461614420419414e+01 -1.1300485338296566e-01
    7.6748826564449653e+00 -1.7844152583258199e-01
    5.2903635826036215e+00 -2.5800481117426877e-01
    3.9855384106976888e+00 -3.5091181301576635e-01
    3.2255336891033113e+00 -4.5909822604992340e-01
    2.7636640436047499e+00 -5.8414555938894386e-01
    2.5061212210827257e+00 -7.2495421010686889e-01
    2.3728022936152451e+00 -8.7563927059873414e-01
    2.3191964338595943e+00 -1.0148029099084741e+00
    2.3096254095150335e+00 -1.1321685726224024e+00
    2.3091297569524634e+00 -1.2021883494219350e+00
    2.3156209254806486e+00 -1.2295375110901414e+00
    2.3134545967968343e+00 -1.2096977062098020e+00
    2.3040826394535481e+00 -1.1446098338285335e+00
    2.2977073667993531e+00 -1.0231255472837781e+00
    2.3473772945100539e+00 -8.6295358798529131e-01
    2.5233258071932654e+00 -6.9048024142832987e-01
    2.9015902103058213e+00 -5.3290132220149733e-01
    3.6020074141584897e+00 -3.9754744165744771e-01
    4.8258985705805326e+00 -2.8768128006504112e-01
    7.1423331935750323e+00 -1.9700702619488319e-01
    1.1967859180596893e+01 -1.2122894012373475e-01
    2.8232694452391648e+01 -5.6808611116772538e-02
    1.2309315998804624e+02 -1.5390667998292832e-02
    3.1512311940197498e+02 -5.0254929763461640e-03
    8.6915034227213312e+01 -1.7320519236473687e-02
    3.3353518918426836e+01 -4.3080539345626098e-02
    1.6501665069210755e+01 -8.5248897298831686e-02
    9.4878918596255062e+00 -1.3945836938888370e-01
    6.3388288157438160e+00 -2.1088330837912489e-01
    4.5489207782483518e+00 -3.0001797847660905e-01
    3.5089835075906186e+00 -4.0728152778461418e-01
    2.8955066536535083e+00 -5.3288848207907169e-01
    2.5483504278885358e+00 -6.8062942828912154e-01
    2.3779352949715311e+00 -8.4198850653767099e-01
    2.3094731416557623e+00 -9.8243825962476616e-01
    2.2950475427098693e+00 -1.0749410261392018e+00
    2.2897015071404887e+00 -1.1079807311493859e+00
    2.2934425646888057e+00 -1.1065909925445747e+00
    2.3014178424824854e+00 -1.1041449293100105e+00
    2.3021769544932984e+00 -1.1080246860400558e+00
    2.2968944306998953e+00 -1.1002043340650480e+00
    2.2893812422312445e+00 -1.0437866747052380e+00
    2.3139661012166353e+00 -9.1297850863583752e-01
    2.4379019491961684e+00 -7.3919131686119588e-01
    2.7526088689138888e+00 -5.7100550688195340e-01
    3.3962279264341801e+00 -4.2367100326525065e-01
    4.6485867214316325e+00 -2.9819620790274953e-01
    7.0153496296266971e+00 -1.9768613611613886e-01
    1.1806251728899330e+01 -1.2068381593648728e-01
    2.8559096790374753e+01 -5.3935628705774091e-02
    1.2669209539206287e+02 -1.3505543386742688e-02
    3.0944315317963407e+02 -5.9057126134358260e-03
    6.7738656622238466e+01 -2.1109667985968885e-02
    2.6390164853037579e+01 -5.2989037094956837e-02
    1.3804376771270224e+01 -9.3078492706036020e-02
    8.6264638559462412e+00 -1.5039873435817505e-01
    5.8816016172546597e+00 -2.2619102416253942e-01
    4.2265450319020417e+00 -3.2364534136116913e-01
    3.2674701841764309e+00 -4.4213121885917056e-01
    2.7235951492800199e+00 -5.8424747952851686e-01
    2.4429431754282676e+00 -7.4857559583901401e-01
    2.3184328847443116e+00 -9.0044933645904002e-01
    2.2880451790190088e+00 -9.9238771182055507e-01
    2.2903977291540158e+00 -9.9508845054647088e-01
    2.3159115826654175e+00 -9.4955660320436031e-01
    2.3400023309736979e+00 -9.0890463073946370e-01
    2.3448783848648453e+00 -9.1393597560628748e-01
    2.3324089905019623e+00 -9.5430484160568874e-01
    2.3068421463559310e+00 -1.0030879479951453e+00
    2.2944998827245033e+00 -9.9948655628514804e-01
    2.3186267704657251e+00 -9.0150861591533038e-01
    2.4383754485171605e+00 -7.3668151861396036e-01
    2.7460999213736166e+00 -5.6758942361502807e-01
    3.4069706817979601e+00 -4.2017190081767347e-01
    4.8071125317185377e+00 -2.9017459661998679e-01
    7.7632887031407938e+00 -1.8148235202313431e-01
    1.4099110746027900e+01 -1.0493977535211736e-01
    3.4218926242112786e+01 -4.7213173069471162e-02
    1.2770362755626950e+02 -1.4130865617149962e-02
    2.2080979481972778e+02 -5.7728051896635754e-03
    5.8551544860708745e+01 -2.2632277216942331e-02
    2.5743692712420348e+01 -5.2803174909811866e-02
    1.4040794545379780e+01 -9.2205807073873325e-02
    8.7664846399532319e+00 -1.4745170041602812e-01
    5.8682691958390016e+00 -2.2728458898662540e-01
    4.1271684665560304e+00 -3.3242831767066960e-01
    3.1726428200935208e+00 -4.6269615993779045e-01
    2.6434436699252171e+00 -6.1903352393203437e-01
    2.3980230386018517e+00 -7.8428268871882556e-01
    2.3107152781844200e+00 -9.0820988328758534e-01
    2.3020532537123550e+00 -9.3137298807958624e-01
    2.3616687536827730e+00 -8.6957693898804456e-01
    2.4501902006376532e+00 -7.9705953125158169e-01
    2.4767447444586304e+00 -7.7141210576080943e-01
    2.4242269432151642e+00 -8.0356009669907225e-01
    2.3741118908222560e+00 -8.7393930142504228e-01
    2.3236374730501517e+00 -9.5157541847179761e-01
    2.3084370459076480e+00 -9.6213107014847044e-01
    2.3368851413852503e+00 -8.6347326281157732e-01
    2.4890745322650929e+00 -7.0132424929878223e-01
    2.8361738959976552e+00 -5.3739656640440714e-01
    3.5527761731899536e+00 -3.9677102845564982e-01
    5.1237901210746575e+00 -2.7122264283119252e-01
    8.8311570423583614e+00 -1.5932446505431147e-01
    1.8016601970465089e+01 -8.1258409030663059e-02
    4.2475451263066198e+01 -3.6950867161005700e-02
    1.6162188860115646e+02 -1.1873399190853711e-02
    3.0321392328343035e+02 -7.0551739346642736e-03
    6.9327879968291768e+01 -2.0771176943315300e-02
    2.8599156427981907e+01 -4.7203562577549596e-02
    1.6332023143315467e+01 -8.2003836591592230e-02
    9.6134959453560249e+00 -1.3745728550563183e-01
    6.0102573986025112e+00 -2.2518195646666947e-01
    4.0843516560539026e+00 -3.3849238244600804e-01
    3.0899489891325302e+00 -4.8293499897158720e-01
    2.5794276110452685e+00 -6.4828822167773359e-01
    2.3678608283610170e+00 -8.0980531476936812e-01
    2.3141938318023891e+00 -8.9646046460446061e-01
    2.3433404321987799e+00 -8.7178559663557820e-01
    2.4505416852454323e+00 -7.8497609927864986e-01
    2.5469197646779538e+00 -7.3254174095443259e-01
    2.4813477754078130e+00 -7.4095056286507999e-01
    2.3946426915352417e+00 -8.0221047344472940e-01
    2.3621688028976315e+00 -9.0126281941490594e-01
    2.3196255433058850e+00 -9.7772293278124422e-01
    2.3094117449211740e+00 -9.5554794718715286e-01
    2.3627026813110632e+00 -8.2490290244962106e-01
    2.5756959169276556e+00 -6.5598783786068571e-01
    2.9964048381517889e+00 -4.9936418843997310e-01
    3.7189069616766792e+00 -3.6957331047588260e-01
    5.2390531077791911e+00 -2.5846440795255993e-01
    9.5672989990866988e+00 -1.4969571541660254e-01
    2.5777562248504001e+01 -6.1111356621783915e-02
    5.7373091915983444e+01 -2.8011568936962498e-02
    2.8492657215739843e+02 -9.1250996351920129e-03
    3.5594987641409557e+02 -5.3043513137468554e-03
    9.4791115927359712e+01 -1.6238399995902673e-02
    3.8327558212569656e+01 -3.6378614981226812e-02
    1.9899955434053297e+01 -6.8582010752963551e-02
    1.0583490008789630e+01 -1.2736849948820311e-01
    6.0022749242070725e+00 -2.2614336060038370e-01
    3.9429188777766218e+00 -3.5220290772844426e-01
    2.9703659427023865e+00 -5.0758351463884255e-01
    2.5120531810291049e+00 -6.7944964231380811e-01
    2.3400369882995657e+00 -8.2825105145513700e-01
    2.3152806380133186e+00 -8.8883003965305396e-01
    2.3570299628350395e+00 -8.4190091517470877e-01
    2.4523180750098583e+00 -7.6653453141818517e-01
    2.4745419852472459e+00 -7.7020475853643366e-01
    2.3415121077481293e+00 -8.2034372296827540e-01
    2.3006479016649179e+00 -9.1768349461627485e-01
    2.3215181931826061e+00 -1.0290959458622542e+00
    2.2951064685186098e+00 -1.0582790011233243e+00
    2.2922312798183810e+00 -9.6567404756517139e-01
    2.3969977575408943e+00 -7.9447676689302027e-01
    2.6843948212324853e+00 -6.1674936599250463e-01
    3.1327176368905603e+00 -4.7007288569919620e-01
    3.8146440475721257e+00 -3.5512441570711928e-01
    5.1233803565236054e+00 -2.5540754559716816e-01
    9.1333732885906187e+00 -1.5382451413879286e-01
    3.0176743919350308e+01 -5.2454282291703812e-02
    6.8736104119773330e+01 -2.1505865133579341e-02
    2.4886281089663652e+02 -9.9219815924551629e-03
    1.9519532896899645e+03 -4.0825169257547667e-03
    1.5278182212105168e+02 -1.0934385475086019e-02
    5.3124290381130734e+01 -2.5544797971133213e-02
    2.3963175940830791e+01 -5.7073081192190386e-02
    1.0894664373756868e+01 -1.2466202083886102e-01
    5.7190220435471195e+00 -2.3849817393128747e-01
    3.7247304971314525e+00 -3.7325889874453644e-01
    2.8570634271343360e+00 -5.3313607010242603e-01
    2.4649387283709516e+00 -7.0209414254697566e-01
    2.3294563044533056e+00 -8.3745005342666701e-01
    2.3162617421233631e+00 -8.8007425314282606e-01
    2.3541599869294054e+00 -8.4101427640859638e-01
    2.3976996357132512e+00 -8.1679096235082194e-01
    2.3455576036564376e+00 -8.9192404165129613e-01
    2.2405161665547344e+00 -9.7855056749435643e-01
    2.2848281990008465e+00 -1.1108034348264570e+00
    2.3193023652239093e+00 -1.1806299637403603e+00
    2.2737736985285615e+00 -1.1288577610345119e+00
    2.2859771540836697e+00 -9.7607041736638400e-01
    2.4356898638405293e+00 -7.7519539879466393e-01
    2.7447986339664068e+00 -5.9444660744996891e-01
    3.1590746832916117e+00 -4.6091023967254047e-01
    3.7814789520643957e+00 -3.5550054693543814e-01
    4.9257015514210067e+00 -2.6354918133304256e-01
    8.2208589242476027e+00 -1.6450368783159636e-01
    2.5954888077457770e+01 -5.9513032785963038e-02
    7.1809723124772660e+01 -2.3368667945240732e-02
    1.7375176839444867e+02 -7.4043238015330153e-03
    5.5276556182575848e+02 -4.0825169257547667e-03
    2.4691249127225689e+02 -7.9883454199429389e-03
    8.6134069842761278e+01 -1.8296453055643928e-02
    2.8082418945003692e+01 -5.1339434738376370e-02
    1.0759234825880586e+01 -1.2934639780528998e-01
    5.3166979990211676e+00 -2.5752139449892208e-01
    3.5308347249498726e+00 -3.9501133107809910e-01
    2.7788958855542472e+00 -5.5042172497057373e-01
    2.4456390322327417e+00 -7.0732309101379065e-01
    2.3309129818889831e+00 -8.2604982050292919e-01
    2.3276143696997282e+00 -8.6785315456393874e-01
    2.3528041492090299e+00 -8.6074372611799910e-01
    2.3564506975469435e+00 -9.0403568425773240e-01
    2.2859676784389427e+00 -1.0347035346571298e+00
    2.2422076618255358e+00 -1.1454361875382564e+00
    2.3283026161621181e+00 -1.2742078993414363e+00
    2.3215746332786940e+00 -1.2481935484502884e+00
    2.2691255498527179e+00 -1.1397750976187400e+00
    2.2957931461751087e+00 -9.6328345085513789e-01
    2.4457350592781810e+00 -7.6301131924236842e-01
    2.7139253507707810e+00 -5.9702704247599581e-01
    3.0907965633105148e+00 -4.7201999119145954e-01
    3.6782996426446153e+00 -3.6837041336524734e-01
    4.7685251138076854e+00 -2.7332531730663617e-01
    7.7275097775245278e+00 -1.7338663436106347e-01
    2.1431663193156854e+01 -6.8942720164739402e-02
    6.7976068223364109e+01 -2.4644657380557041e-02
    8.0352630096764460e+02 -6.9849019269755293e-03
    1.6587564066621760e+03 -4.7702800414168032e-03
    2.7628555281923161e+02 -4.1894280237942541e-03
    1.0543914156042786e+02 -1.8648256426065438e-02
    2.6868748417048771e+01 -5.3272123932593785e-02
    1.0056610295259727e+01 -1.4042051740819139e-01
    4.9056303882587207e+00 -2.7718062477915140e-01
    3.3920298880197790e+00 -4.1220900906901681e-01
    2.7586775502695384e+00 -5.5400340017988914e-01
    2.4700492270462737e+00 -6.9200544534485309e-01
    2.3574416684740833e+00 -7.9258314302255395e-01
    2.3494471930472263e+00 -8.4194083935003439e-01
    2.3534046381274121e+00 -8.6976698674166020e-01
    2.3271405763526309e+00 -9.5866435178155440e-01
    2.2645021592926078e+00 -1.0941026623517327e+00
    2.2643481010533932e+00 -1.2048945593454270e+00
    2.3324589356324146e+00 -1.2724254177800682e+00
    2.2899573648145002e+00 -1.1836340690530318e+00
    2.2643911272807853e+00 -1.0783524942057492e+00
    2.3214758116188281e+00 -9.2258453771877857e-01
    2.4481311437088400e+00 -7.5248127639028639e-01
    2.6679477326838810e+00 -6.0978718581715263e-01
    3.0089562499497662e+00 -4.8675394046402110e-01
    3.6000095403133292e+00 -3.8089677789549986e-01
    4.7658399627595980e+00 -2.7829889148674003e-01
    7.6781348424802269e+00 -1.7549155267349842e-01
    1.8194027952870897e+01 -7.7026142867230613e-02
    5.0970700973169819e+01 -2.9626304106761300e-02
    2.1444103433480433e+02 -9.1102402300022641e-03
    1.5615626688370928e+03 -4.0825169257547667e-03
    4.3118210866498373e+02 -6.7072773949266992e-03
    7.4103567040797373e+01 -2.1601432392398305e-02
    2.4849582084670089e+01 -6.0707692550739371e-02
    8.9577210510157030e+00 -1.5702241225085961e-01
    4.5844733595056848e+00 -2.9716316949982258e-01
    3.3078945953160570e+00 -4.2230679955157091e-01
    2.7862859655937635e+00 -5.4572670883740459e-01
    2.5345531891813025e+00 -6.5910029169170115e-01
    2.4268577521168866e+00 -7.4125055539316853e-01
    2.4016709244412526e+00 -7.8837956822291577e-01
    2.3774781804714529e+00 -8.3396729711932249e-01
    2.3181693652265993e+00 -9.1941340182165476e-01
    2.2581093867191364e+00 -1.0259556246832575e+00
    2.2637781374363977e+00 -1.1227755199202125e+00
    2.2914445737932567e+00 -1.1450631680222347e+00
    2.2738267121204796e+00 -1.0794597074728101e+00
    2.2925316038385004e+00 -9.9988631825843377e-01
    2.3499895118375496e+00 -8.7891758823830757e-01
    2.4512227250017862e+00 -7.4358354695923701e-01
    2.6336275973954510e+00 -6.1562164502372996e-01
    2.9908264110534786e+00 -4.9307976642021417e-01
    3.6241081455783544e+00 -3.7987428222747016e-01
    4.8968917167607033e+00 -2.7351765035083858e-01
    7.8803457154066576e+00 -1.7353912160656032e-01
    1.6651998712570645e+01 -8.4050148584957768e-02
    4.5490457495914207e+01 -3.4162442354077387e-02
    1.8533415106542139e+02 -8.9396475017993384e-03 1. 0.
    3.1272528069509980e+02 -8.9320884530738175e-03
    5.7722188781541384e+01 -2.5397763552538224e-02
    1.9766659214740706e+01 -7.3900175999987924e-02
    7.6197133271261928e+00 -1.7786004816348638e-01
    4.3139196946334328e+00 -3.1338343076992242e-01
    3.2703858159618995e+00 -4.2901306281978535e-01
    2.8322543736440142e+00 -5.3508893813496083e-01
    2.6182270867393669e+00 -6.2078198995980194e-01
    2.5150346894911983e+00 -6.8268924112787699e-01
    2.4702917048498105e+00 -7.2347014006379928e-01
    2.4179529110888551e+00 -7.6555898228681141e-01
    2.3484882223506967e+00 -8.2507042832445943e-01
    2.2995934391871122e+00 -9.1939023956809407e-01
    2.2784967857757339e+00 -1.0062601380037826e+00
    2.2814871178392950e+00 -1.0328150598231831e+00
    2.2960659036638327e+00 -1.0106726929154235e+00
    2.3213283244741656e+00 -9.5150930190270022e-01
    2.3550879384987486e+00 -8.5546569040277520e-01
    2.4434150552990870e+00 -7.4032107142160763e-01
    2.6358787565292001e+00 -6.1326579661208680e-01
    3.0316100828809454e+00 -4.8515629380565350e-01
    3.7626446035868213e+00 -3.6804197912277126e-01
    5.1811765341757416e+00 -2.6078182504371211e-01
    8.3242235766781221e+00 -1.6833375752181137e-01
    1.5937674453010477e+01 -8.8542637406523836e-02
    4.3629929251431058e+01 -3.5936234007029881e-02
    3.0745859936160235e+02 -1.0710812869814668e-02
    7.9264290382954835e+02 -5.9059667884066198e-03
    3.0466252237848397e+02 -6.3521141607904329e-03
    4.7072878041138345e+01 -3.3320214244283233e-02
    1.5316080507390778e+01 -9.1304863358325772e-02
    6.6617962943833726e+00 -1.9910803143977690e-01
    4.0960052775195699e+00 -3.2796741365280158e-01
    3.2065643376810495e+00 -4.3899542814059200e-01
    2.8285290962207679e+00 -5.3445409007988098e-01
    2.6514252731867503e+00 -6.0594789918596770e-01
    2.5479151004395426e+00 -6.5940509656342305e-01
    2.4802743245613934e+00 -6.9784836882395940e-01
    2.4320952188286302e+00 -7.3042289711392439e-01
    2.3963158369953845e+00 -7.8112567027452406e-01
    2.3365997654832360e+00 -8.7168855588320016e-01
    2.2936590400163581e+00 -9.5845445859848255e-01
    2.2982594127292231e+00 -1.0112466172079284e+00
    2.3140479275716292e+00 -1.0104488490174122e+00
    2.3138922655004164e+00 -9.5294508048441673e-01
    2.3390097793279789e+00 -8.5872464213485333e-01
    2.4369784609184322e+00 -7.3231139653859911e-01
    2.6754727095326194e+00 -5.9491059769969501e-01
    3.1294067910226357e+00 -4.6342915177180038e-01
    3.9445495520310541e+00 -3.4877114545342847e-01
    5.5085902005863181e+00 -2.4588474760444853e-01
    8.8099579978306579e+00 -1.5820093635281790e-01
    1.6777698363713807e+01 -8.5437963031161371e-02
    5.2277696344241953e+01 -3.1557961707876239e-02
    2.0428772867343619e+02 -9.7604141172027512e-03
    4.1641672487571304e+03 -4.0825169257547667e-03
    2.3612781711075036e+02 -1.1281662638917349e-02
    3.5408559718698022e+01 -3.9757101771674130e-02
    1.2957299696939886e+01 -1.0385233520642091e-01
    6.1964858147993693e+00 -2.1198097225213341e-01
    3.9594650444964721e+00 -3.3747788973590559e-01
    3.1271813601099603e+00 -4.5170193431740946e-01
    2.7617916321302518e+00 -5.5213161161170021e-01
    2.5842929066675864e+00 -6.3188647746150528e-01
    2.4802645880248617e+00 -6.9322439374912392e-01
    2.4176608056922126e+00 -7.3838490342499952e-01
    2.3783764450554807e+00 -7.7073076966790333e-01
    2.3490303082911219e+00 -8.2876952688509886e-01
    2.3116364742205167e+00 -9.1927271444367897e-01
    2.2877357705369965e+00 -1.0088061036688303e+00
    2.2962927703534590e+00 -1.0608282848796260e+00
    2.3055633661100563e+00 -1.0481237315772911e+00
    2.2953862067285660e+00 -9.6705521798398641e-01
    2.3392306315132405e+00 -8.4650228801890137e-01
    2.4875291139961457e+00 -7.0122275732413397e-01
    2.7878473255332268e+00 -5.5538565651689953e-01
    3.3310128770022769e+00 -4.2707460799875402e-01
    4.3033513665355905e+00 -3.1681048101811732e-01
    6.1459947839004654e+00 -2.2068580424468653e-01
    9.8816230148713426e+00 -1.4105726429159887e-01
    1.8655700071922737e+01 -7.8171042636145410e-02
    5.0726362610482980e+01 -2.9182578619715460e-02
    2.9949883377146671e+02 -8.0257859512416103e-03 1. 0.
    1.7274475915998426e+02 -1.0342104927080499e-02
    3.3237269496476486e+01 -4.3273622199041920e-02
    1.2341179937887706e+01 -1.0916701419569666e-01
    6.2613640936690826e+00 -2.0903257346693113e-01
    4.0691477585926403e+00 -3.3022464188369649e-01
    3.1277474562017642e+00 -4.5487526727414634e-01
    2.6981651335036378e+00 -5.6919680920874238e-01
    2.4916779890819090e+00 -6.7294360257836749e-01
    2.3897765853198467e+00 -7.6060122869494906e-01
    2.3376032043649415e+00 -8.2875749867192705e-01
    2.3094098733546939e+00 -8.8650819387043789e-01
    2.2931587187037685e+00 -9.5984040790998726e-01
    2.2848475852125874e+00 -1.0513839738978326e+00
    2.2875166188451828e+00 -1.1209048305462916e+00
    2.2928505979586640e+00 -1.1289434454891294e+00
    2.2923966853097815e+00 -1.0627393793992568e+00
    2.3074800485734488e+00 -9.3933290698519423e-01
    2.3936848519631009e+00 -7.8734756835251007e-01
    2.6109413868413118e+00 -6.2699095829156970e-01
    3.0390331936072981e+00 -4.8806277673095233e-01
    3.7717453270064931e+00 -3.6895114573691079e-01
    5.0386270820564043e+00 -2.6929222684699877e-01
    7.3023661237951742e+00 -1.8721262426800395e-01
    1.1428271378915754e+01 -1.2162743416079987e-01
    2.2633046192565740e+01 -6.6493819918405500e-02
    5.9439626894799801e+01 -2.6033003150953943e-02
    8.7457160875791180e+02 -5.7733159389513162e-03
    1.9519532896899645e+03 -4.0825169257547667e-03
    2.0097821386457520e+02 -1.0009503564535732e-02
    3.6333445668023472e+01 -4.0498731626959106e-02
    1.3862603433763448e+01 -9.9984708351078630e-02
    7.2357084414232782e+00 -1.8820172495416496e-01
    4.5209348496663777e+00 -2.9963131354587930e-01
    3.3206379128157311e+00 -4.2724847049622211e-01
    2.7455239673924332e+00 -5.5525136241948458e-01
    2.4686739450668247e+00 -6.8177739987301045e-01
    2.3426949046735590e+00 -8.0158751915885995e-01
    2.2944713474999623e+00 -9.0865684987425754e-01
    2.2878424154374488e+00 -1.0089452420447471e+00
    2.2955759265085596e+00 -1.1036228913658575e+00
    2.3106113088741012e+00 -1.1813322080156927e+00
    2.3057952754025552e+00 -1.1921856853912771e+00
    2.2980484211071177e+00 -1.1253050551749648e+00
    2.3053731812177567e+00 -9.9470796319709454e-01
    2.3720670298054869e+00 -8.3223274795177449e-01
    2.5546462043288165e+00 -6.6712599279544393e-01
    2.9231303420497383e+00 -5.2269449435178028e-01
    3.5635000634852583e+00 -3.9906542962413394e-01
    4.6428273522096921e+00 -2.9670064408779434e-01
    6.3701806670761432e+00 -2.1262622456584229e-01
    9.2275954809983389e+00 -1.4869395821728790e-01
    1.4508897402895309e+01 -9.6895728841391707e-02
    2.9263045878004082e+01 -5.0931089071961047e-02
    8.7293469201337828e+01 -2.0214429425303843e-02
    1.6016027333676827e+03 -4.0825169257547667e-03
    2.0149196406116675e+03 -4.0825169257547676e-03
    1.5572043077856297e+03 -6.0049057227948019e-03
    4.5942726236699890e+01 -3.3706347242927433e-02
    1.8509734930018020e+01 -7.8972450858446508e-02
    9.5511946810091679e+00 -1.4774137747773536e-01
    5.7193836820922845e+00 -2.4325025088460003e-01
    3.9284231374253080e+00 -3.6034629905507259e-01
    3.0523495303717452e+00 -4.8644317391314928e-01
    2.6031928890019969e+00 -6.2240998390928659e-01
    2.3820580368802329e+00 -7.5670417890365116e-01
    2.2865960298787700e+00 -8.8873651629216632e-01
    2.2595258215903029e+00 -1.0021705961184684e+00
    2.2676813246114129e+00 -1.0895925753510698e+00
    2.2740748483281883e+00 -1.1174380283506609e+00
    2.2724156883699842e+00 -1.0748398554738789e+00
    2.2911931165328139e+00 -9.6307263463876414e-01
    2.3773104761289381e+00 -8.1766817636238709e-01
    2.5690377547178307e+00 -6.6465591304478566e-01
    2.9451974012654514e+00 -5.2359508190457682e-01
    3.5692064629435833e+00 -4.0214203004097754e-01
    4.5720036484622586e+00 -3.0306916085785518e-01
    6.1702694261497379e+00 -2.2168084535953111e-01
    8.6299852982483980e+00 -1.5936593598315191e-01
    1.2613603522996451e+01 -1.1006069997814258e-01
    2.1385974089017630e+01 -7.0039765310377741e-02
    5.0072707896652531e+01 -3.7135622969980124e-02
    1.7446875323390933e+02 -1.2201409925660911e-02
    8.6753480686378691e+02 -4.0825169257547667e-03 1. 0. 1. 0.
    9.0364287961602884e+01 -2.2738726688603637e-02
    3.1606804277646912e+01 -5.1905397466875648e-02
    1.4715153146870287e+01 -9.9988024641741419e-02
    8.5647751210323548e+00 -1.6843162344781057e-01
    5.5173878059039252e+00 -2.6031072100529362e-01
    3.9393454269138735e+00 -3.6983708225796319e-01
    3.1044608743878799e+00 -4.9009799719239100e-01
    2.6645084982783320e+00 -6.1537068177771459e-01
    2.4387492096415366e+00 -7.3897799674054676e-01
    2.3362459534878677e+00 -8.4317590832245992e-01
    2.3067953676491069e+00 -9.0195141763074727e-01
    2.3138337282029231e+00 -8.9980608740497892e-01
    2.3637368685532509e+00 -8.3974858303552558e-01
    2.4785457180132680e+00 -7.3465553747717993e-01
    2.7125767315666223e+00 -6.1257571358669050e-01
    3.1218285421560279e+00 -4.9207119008839512e-01
    3.7996938912317675e+00 -3.7992816821790787e-01
    4.8326273042782271e+00 -2.8881739452323613e-01
    6.3854364769598693e+00 -2.1344093799804417e-01
    8.8669869107133010e+00 -1.5366778297330164e-01
    1.2619632853276977e+01 -1.0912600850246741e-01
    1.9248390570241277e+01 -7.4098756511331132e-02
    3.5589782125376395e+01 -4.3317185320121798e-02
    8.5094885527377215e+01 -1.9343792080923451e-02
    2.7583703406443715e+02 -1.0402481984734060e-02 1. 0. 1. 0. 1. 0.
    1.6655764615757803e+02 -1.0352700890498751e-02
    5.9994074933847870e+01 -2.8750102524065856e-02
    2.7003375540170516e+01 -5.7568373863846986e-02
    1.5182051158942553e+01 -9.5310537265846387e-02
    9.3189478652061020e+00 -1.5360976276349314e-01
    6.2309547067523656e+00 -2.2342452706933258e-01
    4.6003146079896382e+00 -3.0357777160973176e-01
    3.6585686458791615e+00 -3.8847997503342746e-01
    3.1467005272938047e+00 -4.7019583424592126e-01
    2.8897868890364111e+00 -5.3312356752001944e-01
    2.7991188735900057e+00 -5.6650599100434185e-01
    2.8160026559533500e+00 -5.6278365839423838e-01
    2.9584979336834598e+00 -5.2716469784496944e-01
    3.2482283585972671e+00 -4.6805739853350276e-01
    3.6779783775324946e+00 -3.9580504695925761e-01
    4.3342463742431860e+00 -3.2478944735782650e-01
    5.3825305523192180e+00 -2.5570503272368655e-01
    6.8782638998898085e+00 -1.9461171306904182e-01
    9.3112700649656173e+00 -1.4457420568795201e-01
    1.3020504802411075e+01 -1.0177354320002412e-01
    1.9147175508781199e+01 -7.1425222991494272e-02
    3.0486265340168710e+01 -4.7777757086526054e-02
    6.4497015077753005e+01 -2.5752435999282175e-02
    1.3080779972900260e+02 -1.1379423793926306e-02
    6.2688780062263675e+02 -4.7528749341798140e-03 1. 0. 1. 0. 1. 0.
    1.0847213087133043e+03 -6.6643011271786835e-03
    1.5721880005558535e+02 -1.0964213236813024e-02
    5.5086488023576301e+01 -2.7604451685625048e-02
    2.7705306946450186e+01 -5.1553601425717507e-02
    1.5743024153023145e+01 -8.6771846188993015e-02
    1.0293051935241124e+01 -1.2839203323658069e-01
    7.2960988449751776e+00 -1.7577589865098220e-01
    5.7870197642168240e+00 -2.2305443842966177e-01
    4.9024182121991906e+00 -2.6664028652916133e-01
    4.4971767442703481e+00 -2.9484431645459142e-01
    4.3322548406607746e+00 -3.0750543396580460e-01
    4.3780128970537122e+00 -3.0518012275382900e-01
    4.6657172510630858e+00 -2.8923178018649093e-01
    5.1147729585684223e+00 -2.6323129207069107e-01
    5.6771986005857658e+00 -2.3372359022899974e-01
    6.5795145791347958e+00 -2.0102782478387640e-01
    7.9934413549729015e+00 -1.6369105249752314e-01
    1.0295210628504439e+01 -1.2766599656024497e-01
    1.4166994665298915e+01 -9.3965139687798876e-02
    2.0292669136165173e+01 -6.5683259341041161e-02
    3.1602244940278954e+01 -4.5926531259964626e-02
    5.2377849853898759e+01 -2.8718809806365080e-02
    1.2798691546448659e+02 -1.5693036558388229e-02
    4.0575786632970085e+02 -5.6753061690289659e-03
    6.0060103964212067e+02 -4.0825169257547658e-03 1. 0. 1. 0. 1. 0. 1.
    0. 1.6437501695049459e+03 -4.0825169257547658e-03
    1.0877166104137086e+02 -1.5121393949717036e-02
    4.9049992613745033e+01 -3.1369554677313588e-02
    2.5264036432077848e+01 -5.3330235093993712e-02
    1.6845130997129960e+01 -7.9228267194858468e-02
    1.1932232824927320e+01 -1.0837665070136905e-01
    9.7295488013126779e+00 -1.3397906834398657e-01
    8.2812508102890874e+00 -1.5751318119558358e-01
    7.4665824969193100e+00 -1.7510551410246683e-01
    7.2259399750698483e+00 -1.8262689797873416e-01
    7.3549760793065140e+00 -1.8053534138236474e-01
    7.7763890446668418e+00 -1.6987649156736156e-01
    8.7749184574538699e+00 -1.5315731416993231e-01
    9.7697588468058694e+00 -1.3543312418421866e-01
    1.1460099152015596e+01 -1.1648029967275737e-01
    1.4083023156070727e+01 -9.3951254495821812e-02
    1.8349302005841515e+01 -7.2576887352189492e-02
    2.4714646487709242e+01 -5.2364359860292822e-02
    3.8916379061000157e+01 -3.6382999665505157e-02
    7.2851388649906184e+01 -2.1503063848340172e-02
    2.0535563144582238e+02 -1.3019279071624543e-02
    2.2181126274400849e+03 -4.4942151694836409e-03
    1.0586865875306848e+03 -4.0825169257547676e-03 1. 0. 1. 0. 1. 0. 1.
    0. 1. 0. 1. 0. 5.8282566922955721e+02 -5.7901636185117896e-03
    1.4815384042268099e+02 -9.0538459630506996e-03
    9.8031734479042356e+01 -1.6005443039450590e-02
    6.3234739408312400e+01 -2.2119760192230036e-02
    5.3391879867369703e+01 -2.6845995937598614e-02
    4.1276640363348562e+01 -3.1845063383270797e-02
    3.3200270050886715e+01 -4.3748408875714795e-02
    2.8042060901266538e+01 -4.7282947566080466e-02
    2.5762023480025256e+01 -5.3138804776655016e-02
    2.4444263035638215e+01 -5.6622819640951172e-02
    2.2362696334659461e+01 -6.0338355805842875e-02
    2.4245960803600116e+01 -5.6295001632962055e-02
    2.7133959988062209e+01 -5.1366537962549211e-02
    3.1646881451155753e+01 -4.2632279919398892e-02
    4.2201622222289785e+01 -3.3171027205153004e-02
    6.4456509031414527e+01 -2.2462883077193959e-02
    8.9794385126056980e+01 -1.6069087038247151e-02
    1.5117778664796199e+02 -1.1432202884208037e-02
    1.5194223226179110e+02 -9.0072945458071294e-03
    7.3572522314844582e+02 -5.7703939285430259e-03 1. 0. 1. 0. 1. 0. 1.
    0.</input_scale>
  <output_scale>
    5.2631578947368418e-01 4.9999999999999994e-01 5.2631578947368418e-01
    4.9999999999999994e-01 5.2631578947368418e-01 4.9999999999999994e-01
    5.2631578947368418e-01 4.9999999999999994e-01 5.2631578947368418e-01
    4.9999999999999994e-01 5.2631578947368418e-01 4.9999999999999994e-01
    5.2631578947368418e-01 4.9999999999999994e-01 5.2631578947368418e-01
    4.9999999999999994e-01 5.2631578947368418e-01 4.9999999999999994e-01
    5.2631578947368418e-01 4.9999999999999994e-01</output_scale>
  <inv_output_scale>
    1.8999999999999999e+00 -9.4999999999999996e-01
    1.8999999999999999e+00 -9.4999999999999996e-01
    1.8999999999999999e+00 -9.4999999999999996e-01
    1.8999999999999999e+00 -9.4999999999999996e-01
    1.8999999999999999e+00 -9.4999999999999996e-01
    1.8999999999999999e+00 -9.4999999999999996e-01
    1.8999999999999999e+00 -9.4999999999999996e-01
    1.8999999999999999e+00 -9.4999999999999996e-01
    1.8999999999999999e+00 -9.4999999999999996e-01
    1.8999999999999999e+00 -9.4999999999999996e-01</inv_output_scale>
  <weights>
    <_>
      -2.4205505044311306e-03 1.4350020023881954e-03
      6.4644512343053386e-04 4.8633238430626955e-04
      3.7031664159510754e-04 -1.6347347408353825e-03
      -1.2924630049669246e-03 1.7709373011530339e-03
      7.3201703133273985e-04 8.4176117600069666e-04
      -2.2103004689572893e-03 2.5701767177842448e-03
      -4.6055566270852285e-04 -1.2959532608692174e-03
      1.2146696274049592e-03 1.3501453984548978e-03
      1.2006486140541946e-03 -7.9047858364686484e-04
      5.2702745043081700e-04 1.4969797402949717e-03
      1.8790840525207588e-03 -8.0425485038962896e-05
      -2.1396785201270195e-03 3.8027502702400544e-04
      5.4070604485474824e-04 1.9483366631563347e-03
      -1.1016644708152256e-03 1.9584281285844650e-03
      1.8217483075673349e-03 3.5326222553837576e-04
      -2.4665188888353640e-04 -1.5093692338370161e-03
      2.4117844440002967e-03 -1.0806241320293882e-03
      -5.1099068755931939e-04 1.1185571773340256e-03
      2.2493344026269821e-03 -5.7268389394363574e-04
      1.0421095318872201e-03 -4.2355703764858566e-04
      -6.8650041093578490e-04 -5.9625754962180889e-04
      -2.3240753129875041e-03 2.4844909353482392e-03
      -4.5812788503573639e-04 -1.3234199368159457e-03
      -1.3117890958410138e-03 -1.2971892833947409e-03
      1.9286432407072259e-03 2.4776955337968321e-03
      4.4171985651576075e-04 -6.4402036669152440e-04
      -1.9063480179137810e-04 -6.2389818836504937e-05
      -1.3084339282737141e-03 1.2973360679489304e-03
      2.4794315242453327e-03 -1.6896887634146917e-04
      2.3502187914656940e-03 -1.0219549636833831e-03
      1.7979035016160393e-03 -2.3143435270049804e-03
      -6.7635147751573383e-04 1.7444478761288152e-03
      4.0994780195165853e-04 -1.1371349919335483e-03
      -2.1511456119164040e-03 2.5932848588354198e-03
      -1.2192245718567042e-03 6.2259539968795340e-04
      -2.4739335763265301e-03 -5.5506389869876402e-04
      9.3319818898351112e-04 2.1824289240875705e-03
      -2.4770198212941850e-03 1.8768121412062618e-03
      -1.7568050742993696e-03 1.5740954205610838e-03
      7.9169482570736166e-05 -1.6393361948915856e-03
      8.5506088794419836e-04 -1.9247983747517560e-05
      6.6870247944575878e-04 -4.2905209528778420e-04
      -3.3062849336926858e-04 -2.3421222666677173e-03
      1.2299060377926766e-03 -2.4927376995615520e-03
      -1.7246591510148518e-03 -1.2900388111961947e-03
      2.5464509944050323e-03 -1.7040511063194179e-03
      1.5449500455183046e-03 9.8159894791508451e-04
      -1.6395223755152628e-03 -6.2404130075466161e-04
      -2.2485511052531527e-03 1.8022481891010835e-03
      -4.4152206997778156e-04 -1.8918223063722698e-03
      -2.2416187783284368e-03 6.2184905871835044e-04
      -1.6920375231702128e-03 2.0545627749029372e-03
      1.7838333522198731e-03 2.4487077835312386e-03
      1.1224307161860746e-03 -1.6823447024652909e-03
      5.4541847843917401e-04 6.0996024439176940e-04
      2.3259139436933728e-03 -2.3700064898373829e-03
      -6.5953359430298781e-04 -1.0514735783938968e-05
      -1.9522473752574938e-03 2.2235033654386250e-03
      1.0883563210602821e-03 1.4981828946361202e-03
      -4.3433968840805767e-04 -2.2711853519362364e-03
      -2.4246431630121283e-03 -1.3042937008865172e-03
      -1.5435323993906660e-03 -2.0594743154695125e-04
      1.6973317345745659e-03 1.3453353779394883e-03
      1.4410643926382886e-03 -2.1032797575618778e-03
      5.1696284291902759e-04 -1.1462587045603955e-03
      1.3271121066285687e-03 2.0349253709197814e-03
      -2.0789439996259971e-04 -2.6278472881858567e-03
      -6.2137547830144280e-04 -5.6314481290179158e-04
      -5.8884356465172384e-04 1.1347947913265721e-03
      1.8158400495619021e-03 1.2053427000363397e-03
      -3.3871773124435558e-04 1.5782343508407672e-03
      2.3643370250245712e-03 1.4576160908754509e-03
      1.2876331728093708e-03 -2.2223573664666742e-03
      -1.2420822153991372e-03 1.1362399353808165e-03
      1.7100964781361510e-03 -5.0338429278175907e-04
      -3.0546605958209138e-04 4.3034523465551626e-04
      -6.4746045629228421e-04 -1.6978176696383109e-03
      -8.7716089684717268e-04 1.3099967938766299e-03
      2.5309688048468135e-03 2.2139388332729913e-03
      1.2271952495767201e-03 -1.3760202161781077e-03
      2.2781054343213652e-03 1.1187243823972766e-03
      -5.9168778960385607e-04 9.0443563466739970e-05
      1.1737100848109752e-03 1.6946094836335348e-03
      1.4360221092004171e-03 1.5096901934200362e-03
      1.2055304274241829e-03 -2.3970962661184411e-03
      1.1189925039224962e-05 2.4339091520092721e-03
      6.8246957020225065e-04 -1.9466637872566574e-03
      1.9128338834277757e-03 1.1872493140987470e-03
      -1.6671804626521374e-03 -9.2280886061430151e-04
      -9.0378716211687784e-04 1.5028303414525847e-05
      1.5830882291244469e-03 -2.0735257460117373e-03
      -1.3935019467597616e-03 4.7332415432493305e-04
      2.0341573810042654e-03 1.5534700032835617e-04
      1.6897684656261975e-04 2.0980553297524130e-03
      -1.2725018011645519e-03 1.5074175020667185e-03
      -1.1927308437742850e-03 6.3270803180099126e-04
      1.2009875370347731e-03 -1.4028178347273699e-03
      -1.8407066614731700e-03 9.7811846455308940e-04
      -2.5555596028841446e-04 1.1701808567341364e-03
      7.0336764253263877e-06 -1.0000431699142614e-03
      -2.2141343502134940e-03 -1.6687057698110078e-03
      1.1007261996600771e-03 -1.6939208097205450e-03
      3.5574447253273496e-04 -2.6434521257609127e-03
      7.4932379401512360e-04 -1.0962931057807044e-03
      2.0796859914649882e-03 -1.3826350646334250e-03
      1.2133118845778682e-04 1.2703957711136737e-03
      -1.9114526515396119e-03 -1.3823455460982696e-03
      2.3022513274066556e-03 2.5358567994682784e-03
      -1.5442369473697430e-03 1.7981362358265537e-04
      4.9164853528702494e-05 -1.8031647956547069e-03
      -2.4879459553097151e-03 2.1383652794560544e-03
      -1.7063002883048932e-03 -1.2903812449038034e-03
      2.0691899488953155e-03 2.3874476647723678e-03
      -1.2440421304832857e-03 1.5220685602870521e-03
      2.0441314938599983e-03 3.2837587542554819e-04
      -1.0534584426186715e-03 1.0561926733710196e-05
      -1.6573543767274741e-03 -1.1520808882558549e-03
      1.5300531944796616e-04 5.5172562797671455e-04
      1.7044516138464299e-03 -1.3623467074084313e-03
      -2.4525933053392117e-03 9.2017117878516236e-04
      -2.3897093741088778e-03 -1.4095143786212968e-03
      1.3478005048429961e-03 2.2275246950588250e-03
      3.6420087275450399e-04 5.5866179879609016e-04
      2.2911420388990705e-03 1.5457078338251048e-03
      8.2888157329929959e-04 1.9438164838383580e-03
      -2.8945369491630945e-04 2.8560738393403585e-05
      -2.2120246918154725e-03 1.3647823817089042e-03
      1.4471571075159537e-03 1.9716232595005691e-03
      -1.2804791524286005e-03 6.7518982672510366e-05
      2.2473935682637883e-03 2.5395760880831206e-03
      2.0356583424529263e-03 -1.6138746992204096e-03
      -1.3125068490776859e-03 -2.4967956905256933e-04
      9.9626523151477467e-04 -2.2087560357629669e-03
      -1.1333992639877570e-03 -2.4273224828371152e-04
      7.7630524580477305e-04 -1.1719426692489087e-03
      -2.1526167959436096e-03 6.9756280721370938e-04
      -1.7932330600998283e-03 2.2032823546913132e-03
      1.6967791950376206e-03 -4.6670675607554966e-04
      1.9657832172314212e-03 4.7572160320977859e-04
      2.4196172310331802e-05 -1.8023716354937927e-03
      -5.5313062079023116e-04 -7.7810070075995657e-04
      7.8924255296625189e-04 -1.8539894772010110e-03
      5.8732082178827090e-04 -1.4364542198512952e-05
      -3.7005197919411916e-04 -1.3051920236366695e-04
      5.1243703799553448e-04 -4.5621173344591185e-04
      -2.0872351248095214e-03 1.5649932360349626e-03
      3.6981424496011366e-04 7.2743027414240500e-04
      2.5460278507528199e-03 2.5365933194760764e-03
      2.5158350421405724e-03 -2.3615546120955722e-03
      -1.2583764613015537e-03 -1.6633140146560046e-03
      -1.8493254841341802e-03 1.9246471609057954e-03
      -1.5308133917483928e-03 8.5661101783838774e-04
      1.1633602907073620e-03 1.1636892052986827e-03
      2.3952945647002163e-03 -2.2650504756487467e-03
      2.5287807167435040e-03 -1.3288081774388873e-03
      -7.6078269073251144e-04 -2.3974205932407581e-03
      -6.1567097556772905e-04 -2.4550451659969101e-03
      -2.0194665297914079e-03 -4.5393484599494074e-04
      2.0670526686705610e-03 -1.4286995200401475e-03
      1.5193755833401176e-03 1.6001437509212948e-03
      6.6061854525575404e-04 7.5144454020521138e-04
      -1.5832582881968548e-03 -8.5068829274626879e-04
      2.3305822256111386e-03 -1.2878606820544620e-03
      4.1478542558612589e-04 -1.2017254463562359e-03
      -4.4069246579095638e-04 -1.5635863704909340e-03
      -2.0983871093812170e-05 1.0026498544624348e-03
      1.1317690796402345e-04 -5.1452835386936024e-04
      2.1118045128503617e-03 1.0621802801247557e-03
      2.5321294644884951e-03 -1.1390643432238222e-03
      -2.0036757981347496e-03 1.7314170889499391e-03
      6.9629191236917293e-06 2.0688158345708263e-04
      -1.2167102806306606e-03 -8.4588001560312830e-04
      -2.3932734020564923e-03 -1.3774006877800213e-03
      -1.7264958234849092e-03 -2.4408056547225868e-03
      -1.3030197702342545e-03 1.4223462354478059e-03
      -1.8150743848009752e-03 1.0607679553529001e-03
      1.1457832214779072e-03 -7.8212374879075978e-04
      2.3380798146733057e-03 1.8903937641332677e-03
      1.6635556315882382e-03 -1.4068338249641932e-03
      -9.8548175249003325e-04 2.0415477694033586e-03
      -5.5714367179591465e-04 -1.0315932371620310e-03
      1.0769122495697385e-03 2.4710733247189838e-03
      2.5416189844978667e-03 -1.9039146338920316e-03
      1.1831019028352519e-03 -2.5421059998908171e-03
      -1.2245356532673952e-03 -2.1742310715474312e-03
      -1.8668345978028330e-03 -1.9338690314736229e-03
      -2.5050578573850932e-03 1.4227743381897441e-03
      7.9159633865735009e-04 -5.0154370499696079e-04
      1.6060724492816464e-03 1.2349777680585180e-03
      -5.5400799241743276e-04 -2.3163697883005286e-03
      4.3080196097002922e-04 2.2344551914591716e-03
      2.3535771013988589e-03 4.2502804680169017e-04
      -2.4637757559718390e-03 -1.7327611006138013e-03
      -3.2378306990859938e-04 1.6180144935055938e-04
      -1.2961637534946498e-03 -1.5411780484630919e-03
      -2.1537375971565132e-03 1.2317466357031616e-04
      1.5599706515948475e-03 1.1229033724529734e-03
      1.5818133332635399e-03 -1.9540008608226636e-03
      -2.2558202760087150e-03 1.9116751418444995e-03
      8.3133094378275629e-04 -2.2891370683491056e-03
      2.4031849968570462e-03 -1.3613195690988339e-04
      2.4622165196933540e-03 2.2469265872351492e-03
      2.4494425977865169e-03 -2.9295322001577306e-04
      1.6263391547587558e-03 -1.6648528357311662e-03
      1.8727763036764215e-03 1.8520790954860090e-03
      6.4534836527017534e-04 -1.7195487636912942e-03
      -4.6828258247767459e-04 -6.0614827423209833e-04
      4.4961056154226058e-04 -2.0485627850883813e-03
      2.2165655611570000e-03 -1.6492413479823576e-03
      1.4803770786422232e-04 -3.0716332438940645e-04
      1.2275297819493308e-03 -7.9261346353845356e-04
      -8.7650038045191661e-04 1.7467783934365863e-03
      2.1873663002375428e-03 1.7071729699708561e-03
      1.9790759716433563e-05 -1.6041026222094910e-03
      1.5395465515133505e-03 -2.2511662081614524e-05
      1.5536478704625903e-03 1.4058071744813801e-03
      1.2250369605975531e-04 5.7198692410962270e-05
      -2.0377801436181173e-03 -4.7540037857234395e-04
      2.5022676434635475e-03 3.3698534705258745e-04
      -4.5652052671102329e-04 -6.4871204061360674e-04
      -1.4368690111675427e-03 -1.8460580862454084e-03
      1.6788573759091644e-03 -2.3169259312089808e-05
      1.0241894484573474e-03 -5.2059452859064444e-04
      1.9369844312283346e-03 1.3613665550706595e-03
      -1.4609165515413313e-03 1.6353555721958823e-03
      -1.7484303080780345e-03 -9.8769956475628002e-04
      1.9895852174061689e-03 1.3500322622759257e-03
      -4.2483851452518773e-04 1.1806367047931671e-03
      -2.1505342640950440e-03 -1.4969507753817850e-03
      -1.0560767198640789e-03 -9.2839625224441541e-04
      -5.2891810164221848e-04 3.8078254351640633e-04
      -1.8593186183068571e-03 1.4254308029464551e-03
      -1.5216629997243951e-03 -1.8371929884189002e-03
      -1.2258620193153433e-03 3.8351729596315610e-04
      2.1099175712824109e-03 1.7863209992656887e-03
      -1.2247747008538195e-03 1.8162513154208419e-03
      3.5836765706962333e-04 -1.4583466846682103e-03
      -9.4678862064250565e-04 -2.0185694331992534e-03
      5.0007426908329296e-04 3.3419538479413874e-04
      -2.2175583327624817e-03 -1.0735187867801201e-03
      9.4736631819714132e-04 8.3970004763847137e-04
      6.2358923090343843e-04 9.6438103725346653e-04
      -2.0369520889110078e-03 6.4702201125113492e-04
      2.3383344054417683e-03 1.2281939537303879e-03
      1.2927401487945866e-03 -1.5468214860170240e-03
      -2.5266550663653269e-03 1.5007337873308433e-03
      2.3680980617975661e-03 2.2349250432522716e-03
      2.2999814907800455e-03 1.2969997821679353e-03
      -2.3673641678226011e-03 -2.0032486596803086e-04
      -2.3534376162610343e-03 -1.6962028425291870e-03
      4.3836682255269548e-04 -7.6050639371804367e-05
      8.1104023479959477e-04 -8.0396979781924391e-04
      -2.4615152191688650e-03 3.4218733245572271e-04
      1.0915383629344161e-04 1.7198638275622551e-03
      -1.0731253240944380e-03 1.3505553406648746e-03
      -2.3020543406355185e-04 9.0669547390439078e-04
      -2.2164555538606943e-03 5.4420167816968225e-05
      -1.8052510358768502e-03 1.9240928100986337e-03
      -2.1490698847570181e-03 -2.4642684111729599e-04
      -8.7907366447753643e-04 4.6436471972906502e-04
      -1.1994013800273768e-06 -2.1401963432074326e-03
      -6.8970606255694563e-04 3.8017699352059709e-04
      -2.0592862362326545e-03 -2.5428084608797009e-03
      1.4869682197062102e-03 -1.3405091543033452e-03
      1.6968982477163824e-03 1.7704015934604858e-03
      6.4125698621222916e-04 -1.9799294755912370e-03
      -2.4456948771803062e-03 4.5459415416279625e-04
      1.2540231720655629e-03 -9.8573991260705852e-04
      -5.0831974461482338e-04 1.4804685750113480e-03
      1.4618755857651791e-03 5.2373276336358714e-04
      1.0008846415550826e-03 1.0255819283968911e-03
      5.8217573122884710e-04 -1.4314002514243861e-03
      2.4823145945763680e-03 1.3654473545955429e-03
      2.1318104993299112e-03 -2.0792807229852582e-03
      1.4158614666938980e-03 -1.4027274169071838e-03
      -2.2045368648913638e-03 1.4152284822082494e-03
      2.0776017304350481e-03 1.8025744156330470e-03
      9.9866222355474567e-04 -2.3696410317319218e-03
      -2.2997048297506593e-03 -4.1220031205319632e-04
      1.3155909968711251e-03 -1.8512591218222370e-03
      7.2309700106338800e-04 -6.7249481941697139e-04
      -9.3880677162632526e-04 5.4085995937998971e-06
      -1.2568627966251663e-03 2.3540797354095421e-03
      1.9258483297359360e-04 2.0414061453407719e-03
      -5.5441016609146411e-05 1.6725815764287602e-03
      -1.5141144667079401e-03 -8.0722320790434969e-04
      4.8796252411046546e-04 1.2086175359074178e-03
      1.2514949110977117e-03 3.7731660468528301e-04
      -2.4826689300271616e-03 1.2886341754009213e-03
      -5.3360375401134501e-04 -1.5712886999594831e-04
      1.1766592042732685e-04 6.8167344273453528e-04
      1.3105015618259488e-03 2.4140224040915858e-03
      2.0326166271387794e-03 3.8221501712223189e-04
      1.8753598136256482e-03 1.5706139240755106e-03
      1.4080165751850481e-04 5.4730393808934119e-04
      1.1817469450253414e-03 -7.6467872788588717e-04
      2.2710444851607738e-03 1.4284207686235297e-03
      -2.1640394359977761e-03 2.4457893471332356e-03
      1.0302372038769772e-03 -6.6290070468812839e-04
      -1.4451298252028944e-03 1.1914342813724884e-03
      -1.0918813788870273e-03 -9.1364733944037930e-04
      -2.4583099820259641e-03 -6.8171030556053613e-05
      1.2496583613574785e-03 6.3776170489075507e-04
      -3.8683981927118051e-04 -1.8659025885716541e-03
      -1.9792176715292720e-03 3.6679595765748348e-04
      -1.6397670071395846e-03 2.2832643959672383e-03
      -1.5311467304349752e-03 -8.4963358562182439e-04
      1.5747188477293560e-03 8.0289604840269507e-05
      1.8079935201470014e-03 1.3521554938666276e-03
      2.3852337982630670e-04 1.2806450060106214e-03
      1.8211759432619086e-03 -2.4058937198179193e-03
      -5.4046636689774219e-04 8.0350743146992648e-04
      -1.6005211839547368e-03 6.9970993113168138e-04
      -1.2509883349698166e-03 1.3176089252616268e-04
      -5.0670514849076426e-04 1.6515248902548099e-03
      -1.7115585312428518e-03 -6.1112208144371274e-04
      2.0779834801676711e-03 1.3882049216119921e-03
      1.6485342629295975e-03 -7.7584812544679335e-04
      1.7942296064808914e-03 -1.7482299744689528e-03
      1.8898010720566597e-03 1.8537586285029112e-03
      -1.6444973995184962e-03 -4.3799719571041755e-05
      -1.9234802182087976e-03 1.9955441270866278e-03
      7.8379081026646973e-04 -6.4226866380196466e-04
      -2.2320138745057973e-03 1.1573243959949119e-03
      -1.6460949203925604e-03 -2.0755162909711178e-03
      -1.2109553474629624e-03 -9.6223127535712103e-04
      -2.4556823726113244e-03 -2.0884822605287236e-03
      8.3647399913376011e-04 -1.1715070707087234e-03
      2.4278281631352622e-04 1.1581771796937818e-03
      -4.0330837013380296e-04 1.5824098313722309e-03
      -1.7101300713433915e-03 9.8356730709377085e-04
      1.6734374921022789e-03 -2.1473635452652425e-03
      -1.1191184655680651e-03 -2.3292075670681387e-04
      -3.0185425824921211e-04 -2.4501754057127340e-03
      1.5519678781633105e-03 1.7895093487173177e-03
      2.2824508221209183e-03 -6.9918115323958703e-04
      2.0545364196580111e-03 -2.3435375089882133e-03
      -1.8624521674573851e-03 -7.1530963808762377e-04
      1.1792094761575828e-03 1.1042226654290843e-04
      -2.2926958353979734e-03 1.0962807321928645e-03
      1.6831733648141063e-03 1.6013711343898489e-03
      -1.9381831863357066e-03 -2.3382058752455916e-03
      -3.0810437302436147e-04 -1.8981676633092390e-03
      -2.3042132699242283e-04 -2.0610169473894739e-03
      2.5842750669696794e-03 1.4309275739700636e-03
      1.5143113665246092e-03 9.0615531771475757e-04
      -1.3587519638244719e-03 2.4651313105914078e-03
      1.5240451687102117e-03 -2.4282771561775010e-03
      1.6318612250107445e-03 3.3842549473152013e-04
      3.0722036925785279e-04 -7.3227304338553559e-04
      2.0044199844071438e-03 -2.0345171809719943e-03
      2.3343011015022606e-03 1.1342255738478880e-03
      4.9593631029242922e-04 8.5410644862180007e-04
      -1.6293632787721685e-03 -1.3219935808418687e-04
      -5.1521000701130115e-04 -1.9641604846128209e-04
      1.4276188815836748e-03 2.3182068196054752e-03
      -2.0848562959408495e-03 -1.1070846748979814e-03
      1.7618235901167869e-03 -2.5618360897068618e-03
      2.2319216860293978e-03 -1.4248873289222749e-03
      2.5075396377822925e-04 1.0416372922339577e-03
      1.6182438616021888e-03 1.8310740123394638e-04
      -2.4202149852918923e-03 -1.4834529333748094e-03
      -2.1989756480028512e-03 1.6468337552542516e-03
      -9.1285134929262543e-04 1.5151216860828597e-03
      -3.0812673440370157e-04 1.5911389626931650e-03
      -6.5570337213540647e-04 -2.9035718609049234e-04
      -1.1680406412625435e-03 -1.1102282096722368e-03
      -1.2260975208491212e-03 -1.9098697270013918e-03
      -2.1367898873433620e-03 2.3938318505867615e-03
      1.7692072442782559e-03 -1.5633724628327972e-03
      1.9686120760248112e-03 1.0936093645767299e-03
      1.5014268025522310e-03 1.2225224264447640e-03
      1.3988882387713588e-04 -5.0878747939274579e-04
      4.7644154343392788e-04 -5.5902456870051352e-06
      1.7888709787267964e-03 2.2740766605146504e-04
      -1.6315934997171661e-03 1.8988406212037247e-03
      -2.2311248230213604e-03 8.7846907341580522e-04
      6.0220650472176240e-05 -2.4091755917998408e-03
      -7.2248770913339530e-04 -2.2116627076580559e-03
      -2.2906263240906094e-03 -1.8717700592702480e-03
      -2.1951752503844135e-03 -7.9686928123828880e-04
      -2.6945225394967539e-05 -2.3889395121703288e-03
      -1.5625490027188073e-03 2.0570338517863383e-03
      2.1373153903630152e-03 1.0288333781174402e-03
      1.9480833401877196e-03 4.9223404527388764e-04
      -2.5238726703305072e-03 -1.3079980521101626e-03
      -2.4689822304553876e-03 2.2754617926418891e-03
      -1.0526081234787173e-03 -3.6487051617187715e-04
      7.4661993505201955e-04 8.8176955885737579e-05
      1.4204778018725263e-04 2.2194126952998438e-03
      -1.1465519056710516e-03 3.3471743796456343e-04
      -1.3690072539198063e-04 -1.5037947783071259e-03
      -1.2131881101341631e-03 -6.5869390660468262e-04
      2.5136147601643034e-03 6.3911516776470122e-04
      -6.0170081568829549e-04 -1.5975527086024247e-03
      -1.5081125850617896e-03 -1.2483711438428058e-03
      1.6958192197941697e-03 -1.6874047182942665e-03
      2.0406328032924535e-03 5.4109352823225913e-04
      2.3572418043326508e-03 -6.6461234673784175e-04
      -2.2344712809501109e-03 1.7370420343524328e-03
      -2.4953692649923817e-03 -2.1902626961608791e-03
      -1.9654842893343217e-03 1.1293036224160132e-03
      -8.5480809002626572e-04 7.9639741538591817e-04
      -1.9809337215259256e-03 -2.4630292053501096e-03
      1.2599241735902565e-03 8.3371238203419936e-06
      2.1592955624610472e-03 2.1999471951598660e-03
      1.1908400715213755e-03 -1.1157910434807460e-03
      -2.4904038560582875e-04 1.9828792170721488e-03
      -1.3476219811589117e-03 1.6144009070914120e-03
      4.8018778456202432e-04 2.3727915737910585e-03
      -2.1034541822378084e-03 -2.1415394661600902e-03
      -2.0942570282149673e-04 -1.2922274163676011e-04
      -9.7633837759629482e-04 1.0675545593480118e-03
      2.4247779846677262e-03 1.6104579019445920e-03
      1.0372634287889719e-03 -1.3263478651929445e-03
      4.8783615052579307e-04 -2.3871620269005785e-03
      2.1658669210854781e-03 4.0543591949549873e-04
      -1.4967398316167893e-03 9.9766840101011352e-04
      9.5842339174919401e-05 -1.4131016345175648e-04
      -1.8496277487055810e-03 -3.8688260955722497e-04
      -7.2722988927389869e-04 5.3577705431732210e-04
      6.4167778067824818e-04 1.3213568390607301e-03
      -2.8343058822535193e-04 -2.2457459230124043e-03
      1.0844417227544930e-03 9.4519626124856611e-04
      2.7932098715385535e-04 1.6473504067753258e-03
      1.7313164229988214e-03 -1.9908499722539157e-03
      -3.4302859497689360e-04 -8.8577477050569438e-04
      1.1383949943254825e-04 -8.2428983473605184e-04
      2.4935082164892781e-03 1.6620632511049668e-03
      -1.7924774336673535e-03 1.4014582207323013e-03
      1.9521544230356070e-03 -4.3369631488864012e-06
      -2.2558503169665257e-03 -6.3522439460446671e-04
      1.1794046097692999e-03 -5.8840801530963866e-04
      -5.7352567867470278e-04 -2.0118437580888137e-03
      -8.2954032786138586e-04 1.4752613505524933e-03
      -1.1529014472708343e-03 -2.1574760225759378e-03
      9.5315673598294118e-04 1.7421520771953632e-03
      -7.9626029598626308e-04 2.3233125894624907e-03
      1.1527423738015780e-03 2.2943895895053165e-03
      9.5505359420173684e-04 8.4695743569538164e-04
      -6.1527419361116859e-05 1.9012744603890605e-03
      1.3811101708743393e-03 -2.3865669805059101e-03
      -3.1573820734691994e-04 -2.1070057850465333e-03
      2.1504632597150052e-03 -1.2185782622366392e-03
      -2.3527464889883270e-03 -9.6188132881904278e-04
      2.0882760223322494e-03 2.2963059157589333e-03
      8.6164361817796307e-04 2.2938623262233038e-03
      2.1033406601802065e-03 1.6570574109721556e-03
      -1.3476482375602335e-03 1.3548378242118010e-03
      -1.7252890213117569e-03 -9.4683011213765925e-04
      1.6393767554926939e-03 -1.6294771394427603e-03
      2.5219725353717230e-03 1.6091874831158180e-03
      1.7540571965168929e-03 -1.3138946119233880e-03
      -1.3818338026690637e-03 1.2919432192977096e-03
      5.2065326746362215e-04 -1.4259099601866515e-03
      1.4388457219316937e-03 2.1229797614214863e-03
      2.3265137146770715e-03 -9.4943249687301544e-04
      -2.2401223218766913e-03 -1.0299216535163650e-03
      -2.3407606355034072e-03 -1.5261092614926182e-03
      -2.3265652824038833e-03 4.7096330133939405e-04
      -2.2141228230922556e-03 -1.0368395841838908e-03
      -2.3902130000099330e-03 -6.7511542148368335e-04
      -1.2864807580300723e-03 -7.2476447770544576e-04
      -2.1492792608209699e-03 -1.8627811264475247e-04
      -2.3201687831470703e-03 1.1290287380168712e-03
      -1.8669768818578415e-03 2.2362722195235735e-03
      8.0332181871714059e-04 -2.6364440904096234e-04
      -1.0969783726154777e-03 -1.2612401614405214e-03
      -2.3146101162683252e-03 1.8099731669868398e-03
      2.3059498799041142e-04 -1.4460718159596216e-03
      -4.4575466122235706e-04 -9.1976276145972413e-04
      -3.3430557980620768e-04 1.3008530129872023e-03
      -6.2276622778126517e-04 9.5453722034921510e-04
      -2.1125038787852216e-03 -2.0708700987723499e-03
      1.3896253439127217e-03 -1.6220540185531104e-03
      -6.1094991801359757e-05 -2.4033101651940400e-03
      2.0200620487014569e-03 1.3401661262286558e-03
      1.7378402962273996e-03 1.2622001108558072e-03
      2.1219500594079161e-03 6.8735298374746859e-04
      -9.4233822913175277e-04 -1.5570917301707494e-03
      9.4202241748686814e-04 -8.2246624124944297e-05
      -2.0779578190614528e-03 -2.3425124091877416e-03
      2.4800072015925679e-03 -3.7517521843828569e-04
      1.5333096958438271e-03 -2.0463205170469185e-04
      -9.6729401694072340e-04 1.0278042168776680e-03
      -2.1471447447724110e-03 2.2219113751527934e-03
      -7.6046705465305554e-04 -1.4477190878338095e-03
      2.2969418109218087e-03 -1.0498357161568637e-03
      7.5893157523197209e-06 -5.1427017222484869e-04
      -2.0741507888035832e-04 -1.2750270045966054e-03
      -1.0205244621941986e-03 -2.2674548856424664e-03
      -1.3183111555557783e-03 -2.1033634975185676e-03
      -2.2761261064939906e-03 -9.1252804572785587e-04
      8.5654489175597992e-04 -1.9076068142659392e-03
      6.5237747732591148e-05 9.3643072674621847e-04
      -1.3167067929967476e-03 -1.8707731569319669e-04
      2.1096796350695396e-04 7.6982404271420371e-04
      1.7329578598765589e-03 1.5787247828741168e-03
      2.3734873592370568e-03 2.0637465430880376e-03
      -6.1717326334730517e-04 -4.3604645662883538e-04
      2.3795422240091993e-03 -9.4478009162199243e-04
      -2.2625166793694440e-03 1.8737059697691702e-03
      5.6587466653073367e-04 -1.9603109408126481e-03
      -4.8058463320563847e-04 2.7335130032421652e-04
      -1.6113670894664736e-03 -2.2048205991931978e-03
      5.6780522165834706e-04 -3.4745597389515019e-05
      1.2956242151508015e-03 -6.4543606714512994e-04
      -1.6628111651374648e-03 2.0947902111110683e-03
      2.9548773808773485e-04 1.7305819543131657e-03
      -3.7975429368174472e-04 -1.7687834995642534e-03
      2.4180365761147958e-03 2.3523568077306036e-03
      -1.2069889567308655e-03 4.4308490943218559e-04
      -1.5179642873671131e-03 -8.7803738569985153e-04
      4.3472526194037012e-04 5.6108848391255299e-04
      8.1344258797895409e-04 -3.0913411210118117e-04
      -1.3031592582726976e-03 8.9551951712634685e-04
      1.3912398855951233e-03 1.0562222524353839e-03
      -2.4191583006407012e-04 -1.3910501813282044e-03
      -1.1338867673053499e-03 8.0296326768569399e-04
      1.8205861206110248e-04 1.5261867539824105e-03
      -2.3428463568896710e-03 -1.2240567201625651e-03
      -9.6631872044087251e-04 2.6675942656919824e-04
      -8.5755558735715973e-04 2.1016492322200953e-03
      -1.2781205696404214e-03 3.2698463444199926e-04
      -5.4219878123946041e-04 -2.4234602196634945e-03
      -1.5195794717596999e-04 -1.1159745783324152e-04
      -1.2754761472135786e-03 1.8740413463363139e-03
      7.1723437773865557e-05 7.0681783326243908e-04
      6.2635235000914981e-05 -1.9164362505714274e-03
      1.7087481195290730e-03 -2.1696413633305617e-03
      -2.9219060401943685e-04 1.1382689203266938e-03
      -1.1539536179386771e-03 -2.0406751141909523e-03
      2.6531530683694866e-04 -1.8971258327623304e-03
      -7.3802756998401673e-04 -5.6600145153860144e-06
      -2.3373421163277400e-03 6.1385090351922774e-04
      -2.1614650108792610e-03 1.7154924714512978e-03
      -3.2312846534339213e-04 2.1057069694721407e-03
      -3.7232250150414617e-04 1.8566350946428575e-03
      2.2811978958039861e-03 -1.0426359743104729e-03
      1.0763833965110746e-03 -2.4059253182243359e-03
      1.9347237773982432e-04 2.3471026210998363e-03
      5.9245486328478314e-04 -1.2721968826263702e-03
      -1.4765407922161216e-03 4.7361676204731853e-04
      2.0528567978636831e-03 2.3960840416291378e-03
      2.2891213066334138e-03 1.2260727197541549e-03
      4.7076443270880312e-04 -1.8989075810434202e-03
      1.5614734726158710e-03 1.5756456005196256e-03
      -1.9407772307120661e-03 -1.8114495270365185e-03
      1.7837455557398541e-03 -7.8965220393009000e-04
      1.2194176206592926e-03 -3.9373441084868441e-04
      -7.0036304922911543e-04 1.7669639648478135e-03
      -7.6998449352049783e-04 2.3700409985625667e-03
      -2.3310014938941756e-04 1.9394414123851826e-05
      1.1251285611750094e-03 -1.1411157294395837e-03
      -1.8065037803539484e-03 -1.3750306883229082e-03
      1.5184359208290611e-03 -2.5577932330219425e-03
      -1.5315560569063270e-03 1.2450623862970492e-03
      -1.6769463282852266e-03 -1.1407877696454607e-03
      -1.7450602488574770e-03 2.3707486576198195e-04
      2.2397168151562005e-03 2.4220829391889110e-03
      -1.1825633399235272e-03 4.6799572598169991e-04
      1.6521004652817952e-03 2.0649586365204982e-03
      -2.6832251306575480e-04 8.9610702606824017e-04
      -8.5258163401205676e-04 1.0985576851216558e-03
      7.2510102142019030e-04 1.1442567731709424e-03
      -2.1559579524454689e-03 -1.7172677460448003e-03
      1.4164903121689680e-03 -2.1959964029252756e-03
      2.4853023184474099e-03 5.6189881680680429e-04
      -2.1327277463346391e-03 1.2376929080304762e-03
      -2.3227631959276901e-03 2.4120322321395877e-03
      2.6716656441778941e-04 8.1584252651714683e-04
      2.2953153371317028e-03 -1.2437064383753985e-03
      1.2959839945449786e-03 -6.7820649460899188e-04
      -6.6571577455423086e-04 1.1462111790202258e-03
      2.3706231153933564e-03 -1.8010175691649834e-03
      2.0555087690750031e-03 2.8984388992133527e-04
      1.8520543735109361e-03 1.4466576111475499e-03
      -1.0408105381045029e-03 -2.4429848070626158e-04
      2.1278611551909612e-03 1.1052344849717616e-03
      9.1089933745043311e-04 3.7423707290461141e-04
      1.0766520363299718e-03 -5.4924400659971080e-05
      1.4747365807939088e-03 -2.3342038998617810e-03
      9.3863755278867191e-04 2.0868864267757263e-03
      1.4353976223345937e-03 8.0670722930146273e-05
      -6.6601619693575488e-05 -1.1728615964104660e-03
      1.2641911193869706e-03 1.4600304651329560e-03
      2.4609058252736652e-03 1.2192572683549512e-03
      -1.4261947267697258e-03 6.6948891517977537e-04
      -1.4088055714047633e-03 2.1666629295697421e-03
      1.8462668773158160e-03 -1.5914993803691688e-03
      6.7238500974824689e-05 -1.0998054362592301e-03
      -1.1244515633596840e-03 2.2465617770209213e-03
      -1.3860609169086692e-03 8.8414290736526352e-04
      1.2418506404166746e-03 -1.6415465303808944e-03
      2.4166337702832010e-03 -2.1111835766581674e-03
      2.2585166705138405e-03 1.5041022026570572e-03
      -1.9402429626209854e-04 1.5635912823090561e-03
      1.0527846433361755e-03 -2.4169009030789610e-03
      -1.3854918430142484e-03 1.1361739990135213e-03
      -1.2725678100463907e-03 -2.2918120002442043e-04
      4.5706989180679627e-04 -1.2491618415399546e-03
      7.7696310751877891e-04 1.6452238744204136e-03
      -1.7248358245805401e-04 -2.0240745936171011e-03
      1.3772838039329447e-03 1.4563748305047501e-03
      -8.9460343635394412e-06 -8.8048899602689618e-04
      2.3318587350374203e-03 2.2810023990172744e-03
      -5.4024944613879249e-04 -1.8062263539025743e-03
      2.2589095719825567e-03 6.2317448038875340e-04
      -1.6378367687758216e-03 1.9693113426982930e-03
      1.6062785701707767e-03 -1.4651675207955888e-03
      -1.0536184707310462e-03 2.5578790769550616e-04
      -8.9609605955051329e-05 7.0863529884173976e-04
      1.1717752916543889e-03 -6.5315598326807719e-04
      1.0237435601995993e-03 -1.8723753304900521e-03
      -5.0490023417727335e-04 -8.7468650342374665e-04
      1.7086922934829211e-03 -1.1177371690212737e-03
      -1.0977192298165536e-03 1.1708706722467967e-03
      9.3807082562001153e-04 -2.0463162470105429e-03
      3.3340087556159629e-04 8.0738156914729627e-04
      2.3864595936154368e-03 -2.2633912999653308e-03
      -8.8443685462903025e-04 -1.0945426654387529e-03
      2.1114512972206503e-03 1.6292350416410603e-03
      -2.0214387742166955e-03 -1.5304206143414241e-03
      -2.5543792238464612e-03 -1.3190252779464999e-03
      1.3667392178958392e-03 -1.7589560372211733e-03
      1.6363905741839570e-03 1.3785901492832497e-03
      1.4221347184091497e-03 -4.8622079533886930e-04
      1.8523690690677808e-03 1.2075820344565719e-03
      -2.3560463487590291e-03 -1.2303518715028072e-03
      7.8962695671499768e-04 6.0498408230288383e-04
      -2.0041310836541086e-04 7.9586649076473614e-04
      6.4138885142331640e-04 6.2339728237590188e-04
      2.5308638070391230e-03 2.1113546681678307e-03
      -1.6574247463865591e-03 6.4766789473025006e-04
      1.3089181549566407e-03 8.2461455782334089e-04
      1.4292101644534357e-03 1.5413909708778112e-03
      -1.0639742986246106e-03 -1.1776937507349838e-03
      2.4596637483821762e-04 -4.5674209974711253e-04
      1.0780409269072065e-03 3.9374306072977841e-04
      -2.3708819565167001e-03 9.3359907856066461e-04
      2.0083151546723349e-03 1.8272778278342235e-03
      6.9828899729658671e-04 5.1735722337835604e-04
      5.1785538133258347e-04 -2.2195795021714851e-03
      -1.9206163588961576e-03 -2.3564656836951659e-03
      8.2126803989862628e-04 -4.2084850458190711e-04
      -2.3587344326903787e-03 9.1357249180923600e-04
      1.9292145995443890e-03 -2.1951551430501085e-03
      -8.6467205170623806e-04 2.0450267767225462e-03
      -1.1554535384737091e-03 1.8222234801288639e-04
      -1.0240729083307129e-03 -2.4259810056627643e-03
      1.2909672784429216e-03 -1.4727425877345641e-03
      9.8566882800872960e-04 -1.7897816937535529e-03
      -1.5935451973514072e-03 -1.0374744319149859e-04
      -2.0618520102469022e-03 6.5600387690814999e-04
      -1.9672737562515623e-04 2.1460499370567288e-03
      1.1049065731680995e-03 -1.1124302738558074e-03
      -2.4493817607904389e-03 -1.9128838029790416e-05
      1.5226777457462066e-03 4.8162380028477479e-04
      -2.2248485088827374e-03 -1.3337644822310629e-03
      -1.2570264942768554e-03 -1.3471148801908305e-03
      -1.9327819353228107e-03 -8.3674110324846740e-04
      1.6038869237644995e-03 -2.3718096809756768e-03
      -2.3197604221525925e-03 2.1373903023772325e-03
      1.7335641348217687e-03 -5.4834811514299929e-05
      1.8489978706990979e-03 -5.9709966640714032e-04
      -7.5408931194511839e-04 -2.6701187113072674e-04
      -1.6205887633824940e-03 2.0358579351147518e-05
      1.4710876347898301e-03 -4.0469844855370448e-04
      -1.2499106254333717e-03 -2.0022857787331330e-03
      -1.6101205454131292e-03 2.1193049414988722e-03
      -1.0145529383584655e-04 -4.9366862534875374e-04
      1.8996068578570392e-03 1.2751935717241465e-03
      5.5986018710755094e-04 2.3401255253264319e-03
      1.8574524887066375e-03 2.5449263979385205e-03
      4.9174117610266280e-04 2.1159212455854250e-03
      -2.2518042367263066e-03 2.4168842712453172e-03
      2.0128130992059924e-03 -4.1407593537220707e-04
      -4.2911295418353003e-04 1.9337204557676676e-04
      8.1521574437030627e-04 1.9337108456058407e-03
      -2.0227188024618029e-03 5.3144872838818893e-05
      -8.3253476628240397e-04 -1.7613601221703166e-03
      -5.3310785367231958e-04 1.8644099487470393e-03
      -2.4323731400010648e-04 9.4286154477943979e-04
      -2.5086734848478748e-03 -1.2774683424536522e-03
      -2.0728466905956451e-03 4.9523821117368232e-06
      -5.3542046750893011e-04 -2.1120917059856094e-03
      8.8868961566093609e-04 -1.1822627199413681e-04
      -1.5608568662101197e-03 2.4843638094590916e-03
      -1.4643507096143977e-03 -3.0941395677795995e-04
      -1.2020835393391559e-03 1.2402720079093296e-03
      -1.7621606176612917e-03 5.4348254573992447e-04
      -2.9721578650100932e-04 -1.3811667550795751e-03
      -2.2638752409792893e-03 -2.4117862255121367e-03
      9.4131605103578604e-04 -1.1488989299614201e-03
      -2.2170290885286290e-03 -1.9388221839784128e-03
      2.4192465788372831e-03 -3.6301939865311178e-04
      1.1936212392456293e-03 -3.2352282298011366e-04
      -8.4072711067620658e-04 1.6757991883189298e-03
      -1.2197991989212748e-03 7.7215413932297042e-04
      4.8608188920366320e-04 1.1807590089974449e-03
      1.9035887446631409e-03 2.0430706513688683e-03
      -7.0481101187559671e-04 -2.1391933032190390e-03
      -1.6722906048924761e-03 4.0418897860407320e-04
      -1.0948531942673986e-03 6.2845915974400410e-04
      2.8467446622635289e-04 7.1301419407129364e-06
      -1.9520772735413894e-03 9.6478133724800226e-04
      1.6748590481547787e-04 -1.8426482634378873e-03
      -2.5044088343399019e-03 2.1328752650343042e-03
      9.7940098225204691e-04 -1.1246740974158590e-03
      -1.2147735505715627e-04 -1.9877965366416608e-03
      8.3164271816482465e-04 2.0051486555808354e-04
      1.0971990663864980e-03 1.7896879019800433e-03
      -1.1643265276362258e-03 1.4704769451938369e-03
      5.5558269047500654e-05 1.6323857113135344e-03
      2.4622543811438904e-03 2.1903342252888904e-03
      1.7804830544741793e-03 -2.3797625596339120e-04
      -8.2481057183995520e-04 -2.0514012269355376e-03
      -2.4228625125908812e-03 -6.5185124875874608e-04
      7.4441134276044952e-04 3.9274501889417248e-04
      -5.9630297485111508e-06 -2.0094444388413569e-03
      1.2786259815994892e-03 1.8483514612749267e-03
      1.0924476856528156e-03 1.3703479507249977e-03
      -2.2618816221256842e-03 -2.3716226246977214e-03
      -1.9177022292146152e-03 9.0703075697015916e-04
      6.5955289830785821e-04 -2.1405205958201765e-03
      -7.2486270088028117e-04 -1.0917630964900787e-03
      -1.9541590888534077e-03 4.5156899081024321e-04
      5.4002040559780588e-04 2.2391480353225472e-03
      -1.6010439034394876e-03 -1.1174760230132437e-03
      -1.4513431825391224e-03 -1.6545687068442430e-03
      1.1090023763992985e-04 2.1829173709937335e-03
      -1.2808192632084585e-05 2.1697119832870169e-03
      -7.6337168974958383e-04 2.2633557524947543e-03
      4.0524618451984639e-05 5.4523635759113750e-05
      1.4157782376254793e-03 -1.9231674831963266e-03
      -1.8932437268725808e-03 1.5073124817033645e-03
      3.7344011120402901e-04 -8.6869773231547463e-04
      -1.2680638710081300e-03 -1.3827853288151163e-03
      -2.4490457569583558e-03 5.2371653024836163e-04
      1.9584453219989749e-04 -2.5647546898701148e-03
      -1.2653929498345172e-03 2.4321291893376284e-03
      1.9017588273957724e-04 -1.2950321640435746e-04
      2.1116820088001718e-04 -2.5063244525518314e-03
      2.3174843074760293e-03 2.3703290141336010e-03
      -3.6058830986179390e-04 1.9146263822081034e-04
      2.2402937356027111e-03 -6.2038563732430443e-04
      -1.4608700166401033e-04 -2.5238414107063888e-03
      1.2232485752911701e-03 -1.8069679075870422e-03
      1.4890151317399774e-03 -1.5688944252391836e-03
      1.4129163617445123e-03 -1.6156236797334014e-03
      -2.2620988399443161e-03 -2.0706874204191542e-03
      1.4349816376438445e-03 -1.7463602319458989e-03
      2.1817553520688412e-03 1.4467103983496668e-04
      -1.1724437719222628e-04 9.8614374930735497e-04
      1.6433330502730406e-03 5.9557602480710494e-04
      1.3516634227409564e-04 1.9551850190976922e-04
      2.1698740415205539e-03 1.3124518756262458e-03
      2.4247537430628972e-03 1.3988567520593639e-07
      8.9310348449784269e-04 1.8985610999533309e-04
      -7.1277591793221095e-04 -2.1854684675126478e-03
      2.1958625320112196e-03 -1.1071780484136909e-03
      1.2928768430421737e-03 1.3249638897653813e-03
      1.1220450647644270e-03 6.2248706759253109e-04
      -2.2606740230467874e-03 -2.2811778710879098e-03
      -6.0264563414942412e-04 -1.9043205867550175e-03
      -8.4445284609620860e-04 2.1643796508892961e-03
      1.5485366300279811e-03 5.1319476538112850e-04
      1.7085538496277293e-03 1.6521758151621525e-03
      1.0419297913191823e-02 -7.2056665565999609e-03
      -4.6434275190657672e-03 1.3431071596070376e-02
      1.5968509221965671e-03 4.6945073302154328e-03
      4.8161235102609267e-03 -4.9282156495617825e-04
      -1.0428111878677789e-03 1.8284196503509802e-02
      -9.3729047268262117e-03 -7.3350512332753838e-03
      -2.7385340544442867e-03 4.7727215378455491e-03
      -1.1552979149778977e-02 2.3963661172083390e-02
      -8.0272230497273455e-03 1.9964996551958622e-04
      9.8859114269266128e-03 5.9675421638914570e-03
      1.0617857542796077e-03 3.6865702213471642e-03
      3.8963433076902592e-03 -6.1737450406207451e-03
      -3.0212213498885402e-04 -2.2603364778716875e-03
      2.9411040510489640e-03 -2.6894541958568524e-03
      1.0944517325729706e-02 -4.3305077645065058e-03
      8.2896652945344557e-03 -5.5801153343720865e-03
      -1.2433734719717144e-02 9.8747103239478777e-04
      -4.8147820706914762e-03 3.2731832498251933e-03
      -1.1975217432314923e-02 -5.0656740223579810e-03
      1.3313352476512602e-02 -3.8896578018039973e-03
      1.1488051549207014e-02 5.0799418526562851e-03
      -1.8200335095522561e-03 -4.6513922031420282e-03
      -4.8335308064125860e-03 2.9404622357423441e-03
      -1.3849194517537673e-03 5.4406158427329149e-03
      -4.5805419157501411e-03 1.5169217696488270e-02
      7.8966857251850145e-04 -1.4853662622185274e-03
      -6.2015732938350996e-03 -1.8826830049203924e-03
      -2.8869795056823411e-03 -6.6563903138674714e-04
      6.8717647968650365e-03 -2.9063069108987826e-03
      1.3563969618935733e-02 -8.6294276895788908e-03
      -2.6465298312687460e-03 5.2496317931355297e-03
      6.5607998146790343e-03 -6.9124744892940333e-03
      -1.4231333613300657e-02 -8.9857930469471256e-03
      1.6552512864043337e-04 -5.0818082568709804e-05
      1.2436854972379804e-03 1.1112193509956502e-03
      -8.0861521721354527e-03 1.4851133220840525e-02
      3.2109264137921180e-03 5.2440193100878859e-03
      -5.5736230287005469e-03 2.0981825379526491e-03
      -9.4848419308913631e-03 4.2663787205582645e-03
      2.6753624423857805e-03 8.5025416211061099e-03
      1.2353353105209483e-02 -7.0480347642164131e-03
      1.0563620170471371e-02 -5.2477617371212597e-04
      1.4372922557167149e-02 4.8256343925032778e-03
      -1.0280618151148495e-02 1.5545262799076401e-02
      9.2305547560140831e-03 -1.4554289299114920e-02
      3.2025780973948099e-03 -1.2446161721030526e-02
      -1.9571608284279536e-04 -1.4388863429209907e-02
      8.7980538807918285e-03 -5.2278043705829280e-03
      9.8443750172345153e-04 4.2723159201521347e-03
      -2.0102607639193135e-03 1.3155765719713003e-02
      -6.5856359211419659e-03 -3.4056888646474300e-04
      4.4204573469475246e-03 -2.9743917116702365e-03
      -4.9480889279322413e-04 -2.4643370772956018e-04
      1.9843042484893646e-03 -2.4803014967434223e-03
      1.8235784281856272e-02 -1.7879244987938366e-02
      -5.2730849675403993e-03 2.0607071089253932e-02
      -4.8342320073969146e-03 1.2702682474825618e-02
      -1.2873535174116754e-02 6.6180055035020852e-03
      2.4543581598382301e-03 -2.8407715998184317e-03
      -3.0764151711982861e-04 -1.5952266546691183e-03
      3.4221142720847119e-03 -8.1731269879759833e-03
      1.1499490059897907e-02 -6.3938100950501038e-03
      -6.8709595735456036e-03 8.7612781241819390e-04
      5.9914965705948316e-03 7.0023352197379042e-03
      4.7783231171796559e-03 -3.4696032628882289e-03
      -4.0178681611381046e-03 7.1482377541384513e-03
      -1.9117482795618960e-03 1.4886931822475106e-03
      6.6099033501303408e-03 -2.5478490017426538e-03
      -4.7432089507566779e-03 1.2994693597815981e-02
      -6.4907660131298924e-03 -4.0712378003992366e-03
      2.0129758812777749e-03 4.5853307924032466e-03
      -7.4519796286500305e-03 1.3380518590023437e-02
      -5.1769308987509345e-03 2.4711390257922791e-03
      2.7820782262089655e-03 7.1183339837455305e-03
      1.1404544774729266e-03 4.0015521218321080e-03
      6.6237375105890192e-03 -3.6923983391443809e-04
      -1.5527106903424461e-03 -4.8499531847405186e-03
      4.3884921348076269e-04 -3.7741972638266320e-03
      5.0988923547328827e-03 -8.8896751947759739e-04
      4.2759929297079427e-03 -2.7568361017643039e-03
      -6.8997600618298386e-03 3.7069467736087214e-03
      -2.3727521479972999e-03 2.5391963838235082e-03
      -8.1172050295740088e-03 -4.2236464382147728e-03
      5.7179063406142816e-03 -4.5057795821895766e-03
      1.0897673735002108e-02 2.9260929494149307e-03
      -4.0695922275790384e-03 -4.6240936461035016e-03
      -8.3939199534473175e-04 -1.1849480145823992e-03
      -9.4127445218691560e-04 1.4633991712540869e-03
      -3.7962730492802515e-03 5.3214530012116743e-03
      -1.4605132363543355e-03 1.2291355896082653e-03
      -4.4095344394617653e-03 4.9319965961065520e-04
      -2.7980715367503488e-05 -4.2804042058608898e-03
      4.7074582158504403e-03 -1.4141476825704469e-03
      5.2468341865509515e-03 -7.0369294291081647e-03
      -3.0423410429071419e-03 6.1118849400111632e-03
      7.2785179524772819e-04 -4.0676503274101787e-03
      -6.6389784105430139e-03 -6.0976889323650077e-03
      -5.2134717796056525e-04 1.5354686813611642e-03
      3.9358974794726385e-03 -7.5724862440872110e-04
      -4.6319624977525960e-03 1.2253543219778897e-02
      6.0556473189018033e-03 5.8882526207117156e-03
      -2.2078341081063924e-03 -1.4239240108990736e-03
      -6.7930455816966944e-03 2.2607704847542502e-03
      3.2249531929336227e-03 4.8134584647366568e-03
      6.0287884227498770e-03 -6.3904696077682621e-03
      3.2095168108034876e-03 2.7094027292032669e-03
      1.2012560837998017e-02 -1.1255511241205702e-03
      -5.1822369976366675e-03 1.0646236853912291e-02
      6.7636715710389754e-03 -6.8901248083041676e-03
      1.9783736558089504e-03 -8.4045951561678954e-03
      -8.2171611154474653e-04 -9.8822329523858676e-03
      3.7531939265484813e-03 -7.8987298295782916e-03
      2.7902561015536237e-03 4.4427476578865841e-03
      -3.9165481407492904e-03 9.8628229891032995e-03
      -4.5914732770030373e-03 7.3354781781152851e-05
      3.5383631717115767e-04 -5.8283603774565568e-03
      1.0691999884927114e-04 -3.3553095067807457e-03
      6.1376147413217275e-03 -6.4174899218661860e-03
      1.2532748878142069e-02 -8.6450113369117496e-03
      -7.2216923306138558e-03 1.1275833137528028e-02
      -2.4570825207975945e-03 7.5415355083761973e-03
      -7.2874586847237587e-03 7.0549800956293263e-03
      -4.0152672317752083e-04 -5.4848002340868336e-04
      1.3711558063723812e-03 9.4330869425543723e-04
      2.7401022315465392e-03 -7.0540043401817864e-03
      2.8294151014539642e-03 -5.7604584470129800e-03
      -2.9223664475699156e-03 4.0087462409338611e-03
      4.9623312589934746e-03 2.0265011104566963e-03
      -6.3111258928981598e-03 2.5210290481309473e-03
      8.9093681618202609e-04 -2.6675700135285895e-03
      -4.1797159269498698e-03 -1.9558126440538848e-03
      2.0083480446842468e-03 -2.3761264924321260e-03
      -2.2501901855381348e-03 -6.9299222744453638e-03
      1.7839212800806413e-03 1.1176250652043117e-03
      1.4638914937604350e-03 2.0557178817860243e-03
      5.6537699037523823e-03 -7.5002048007971091e-03
      -1.2292741903928146e-04 -2.4290718346745054e-04
      -3.3348936149760534e-03 -6.8377961736771600e-04
      3.2362694299755568e-03 9.1068711706294428e-04
      4.4605817894449555e-04 5.9821977135560327e-03
      -1.1918674122757826e-03 -3.9622519980331344e-03
      -7.2605886725775944e-04 -3.5830935319443070e-03
      5.9672285808604270e-04 -1.8210356624730835e-05
      -5.0111465408070894e-03 -5.4973894429556831e-04
      1.3344614063960938e-03 -1.9485702851380190e-03
      1.5981709755483169e-03 -1.3217160513734263e-04
      1.9263351988879898e-03 4.8448775492843247e-03
      -4.6136663418115606e-03 1.1569469088581932e-03
      -8.7926363426582088e-04 -4.3087276167759299e-03
      -3.1745734549435169e-03 2.1668031527340139e-03
      1.9631687437275686e-03 -4.1186298722595237e-03
      -3.8670073815889736e-04 -2.3496831103280505e-03
      -7.3374840013045286e-04 -5.8105629762123081e-03
      -3.3679747651097955e-03 2.3028233176256786e-03
      2.3330936446373722e-03 2.4856149231300339e-03
      4.5880948638394497e-03 -1.4994752874572820e-03
      6.3231454979714859e-04 -5.6532081904666232e-03
      -2.3435573237454307e-03 2.5747157707057045e-03
      1.1176164157625263e-03 3.1277161226429009e-04
      -7.3632918103706257e-03 -4.8225427234346628e-05
      1.2541518212937860e-03 1.7729918515696854e-03
      -3.9265026073248780e-03 2.3671026324770510e-03
      2.3750465525514369e-03 -8.8034547984321902e-04
      -6.1802538809621068e-04 -5.7930989992199377e-03
      8.4130481561199360e-04 2.8237399441723718e-03
      3.4636828699113982e-03 -2.0483485978559338e-03
      3.2590491040230913e-03 -1.1105924275770841e-03
      1.6616274840053496e-03 -6.7361610732535196e-03
      -3.8974979912270902e-03 4.4413403674434518e-03
      -2.2604315395189844e-03 5.5936981104986487e-03
      -6.6874168456058035e-04 -8.8823745361619709e-03
      -4.0761438200709027e-05 -4.7677267439103473e-03
      -3.5292601960802792e-04 3.9337166715474090e-04
      -3.1883701525706899e-03 1.8902183779271147e-03
      4.8359540695298254e-03 3.7792660934296979e-03
      -2.6911779157788537e-03 9.3175254179147442e-04
      -1.4546080487779802e-03 2.4979524815000268e-03
      -1.7488333302070342e-03 -4.1097811265667986e-03
      1.1961789733535061e-03 -1.5624852754308771e-03
      5.7261167515080765e-04 -3.9310254586980235e-03
      4.1508883977307858e-04 -3.2933084112698307e-03
      6.5319561239144579e-03 -4.0951467169320077e-03
      -5.9738814382788849e-03 8.0107234768682575e-03
      -1.0541596117295332e-03 -9.0599747649442227e-03
      3.5635925111472296e-03 -2.0977500227274638e-03
      4.6798729417350101e-03 -3.5082004946751849e-03
      1.9860542195019993e-04 -4.5055371518574713e-04
      9.2835856421237485e-04 5.1734590770603807e-03
      8.1058080427679087e-04 -8.1987049402419655e-04
      -5.9711332037022192e-03 -2.0761462790229979e-03
      1.8717275322071597e-03 1.2488793643433244e-03
      4.1840884343541515e-03 3.3723994362094812e-04
      -6.9278209936746585e-03 1.5445665124244094e-03
      1.1439301277860799e-03 -1.7992020750363352e-04
      -3.2888038697596445e-05 -8.5069778115085210e-04
      8.7952479514600472e-04 -4.5383965988579581e-03
      6.5601228514490266e-06 -6.6882589744413461e-03
      3.9014649519461355e-03 1.7400921544490086e-03
      3.1409906209875858e-03 -7.7465215955075403e-04
      5.5891351936770287e-03 -4.6071853453808608e-03
      1.8039292010371276e-03 3.1218397492898155e-03
      -3.7230225901540236e-03 2.1921795747451044e-04
      2.6125126669893691e-03 -3.5102907739094043e-04
      3.4945233505774896e-03 5.8183043600515743e-03
      -5.7545438901585403e-05 -1.0894498234014587e-03
      1.7559498097019413e-03 -1.7980454079579438e-03
      -7.0211221013884585e-04 -1.3211366899848990e-03
      -2.8884610685561691e-03 1.5212877548623103e-03
      9.7085980968380570e-04 -1.8412647560235717e-03
      6.0072119461074454e-04 2.7071649093814189e-03
      1.0895458239553301e-03 4.4258970260206013e-03
      -4.4320971200914813e-03 -2.5200902464057933e-03
      7.4196759333538685e-04 -8.9644791471025706e-05
      -6.1021115700482477e-03 -1.9961243388364885e-03
      3.6569498299892175e-04 -5.7718018214801894e-03
      -1.5708381171851157e-03 -2.6471443582093564e-04
      4.0534664358272233e-04 -2.8852988007412430e-03
      -3.6047108314426475e-03 2.6662855310671881e-03
      1.3035939299271995e-03 3.0861798115633526e-03
      6.9980630902850118e-03 -7.4108060588057171e-04
      5.4625070019366369e-05 -9.4989737685937064e-04
      -4.8782908830825441e-03 2.1488220915601036e-04
      2.9296651398359329e-03 6.9018487915508536e-04
      -8.4434925267416715e-03 3.0041753852097799e-03
      -1.4048125806365400e-03 1.9601722665331103e-03
      -2.6443117180507264e-03 8.1938459615515610e-04
      5.4789139510821976e-03 2.9072941224576325e-03
      2.0293248407323439e-03 -5.3090954761504192e-03
      1.8230020805910787e-03 -3.2804388991083119e-06
      5.9152454859607616e-03 -4.4820557135268266e-03
      4.2382007747482709e-03 2.5992769623869606e-04
      3.9077931530717621e-04 -5.2614519665878890e-03
      -3.4484631294557132e-03 3.2259082143209555e-03
      -4.3552367960398965e-03 6.9131000266365013e-03
      -1.4078358311852576e-03 -8.0718302060116646e-03
      3.4530003973417510e-03 -5.0351119475686669e-03
      5.5874037985538115e-04 6.3486320716076960e-04
      -3.3624535142929212e-03 3.8860798732078768e-03
      6.9706377942627658e-03 2.8126574170988542e-03
      -4.9571410643942885e-03 6.6465501140098660e-04
      -2.4570868345353044e-03 6.2219562893532827e-04
      -2.4746882879026725e-04 -2.3225594205907997e-03
      1.6551286393989711e-03 1.3228330042721085e-03
      1.1677376772939697e-03 -3.2612510206806405e-03
      3.1909526454181295e-03 -3.6654460472989774e-03
      5.0357314218868647e-03 -4.1912436289229180e-03
      -6.6776545459652304e-03 7.9708975091457926e-03
      2.8602111942979034e-03 -8.2582175970481366e-03
      2.0574581036737387e-03 -5.0339513822690390e-04
      5.1852838947169392e-03 -4.0581412074300501e-03
      -2.9756553267949156e-03 -1.3742777635196886e-03
      -8.0291623111821358e-05 1.8529492764403003e-03
      -1.7764816400507933e-03 3.3517184747761976e-03
      -4.2849532028198635e-03 -3.0687005217350460e-03
      1.5036344606457108e-03 6.2600448818732508e-04
      3.7202144767916881e-03 -1.7256231090190199e-03
      -1.4251225798383059e-03 -1.5890473498686717e-03
      -8.0762309645902435e-05 -1.3598342427780033e-03
      -2.3329599160474835e-04 2.1944935225832502e-03
      -3.1341928430198013e-04 -2.1922263295850375e-03
      9.7071599040508046e-04 -6.0095353360470230e-04
      -1.0077192213966163e-03 -1.6419727606589401e-03
      5.0062523016231519e-04 -7.9409760698395627e-04
      2.3268245151482894e-03 -2.0468511316547454e-03
      9.2268684687723699e-04 -1.4314526758790267e-03
      -8.4419261471443789e-04 -1.1969432282164984e-03
      1.8446382604288426e-03 2.3847812536233358e-03
      5.5158385214071565e-04 -2.0539159806931984e-03
      -2.2647566972810321e-03 -1.2628191512540651e-03
      1.1407262941905308e-03 2.1487395153413848e-03
      -4.7508851702659301e-04 1.2692018152679002e-03
      -2.4660597771764283e-03 -2.0416373966926577e-03
      2.2137754427938965e-03 1.3502825186573373e-03
      1.4719360545103945e-03 -2.3465435388210190e-03
      -1.5276287578448759e-03 -2.5793101753537207e-03
      -5.1924723391230166e-04 1.5539785870332219e-03
      -2.4201102895537148e-03 1.7466410681558149e-03
      6.3910461728594321e-04 -1.3580609603487308e-03
      4.2472001109238287e-05 1.8645721533267363e-04
      8.4512351475353009e-04 1.1142599147828771e-03
      -1.3356634894867308e-03 -3.6212014051385967e-04
      -2.2966934939481890e-03 1.9719099116868076e-03
      2.2489214812416091e-03 -9.8434573254274800e-04
      -2.3646822055203901e-03 -5.0097484966022668e-04
      4.6597902949478708e-04 -1.0127771509833752e-03
      -1.4790635154697787e-03 -3.6178672657465933e-04
      -1.1247278916798088e-03 2.1313179137396844e-03
      -1.4050098584243489e-04 -1.9379884581442455e-03
      2.0459234548227141e-03 5.5426752087562084e-04
      1.5580987702582152e-03 -1.6592700571560091e-03
      6.8541150144384015e-04 -1.4185491821169468e-03
      -1.1243757311370922e-03 1.7037839999180647e-03
      1.7760356005650851e-03 2.7166019658182066e-04
      -6.6032413410801761e-05 2.5261432233031028e-03
      -2.1638512433223623e-03 -2.0983609924951603e-03
      -1.8739297276718341e-03 -5.0356108291084347e-04
      3.7853657973991824e-04 2.7217982276205877e-05
      -1.2318122091693302e-03 6.0718514274289942e-04
      1.0577498401169922e-03 -2.4845962472362986e-03
      2.0520563877551054e-03 1.3329231160693901e-04
      1.5090166508916630e-03 1.3532937037258799e-03
      -2.5066093603463417e-03 -1.3801220405846833e-03
      2.3637018248354985e-04 2.4786624211029827e-03
      7.6784800687863461e-04 -1.3012221638679673e-03
      2.4906547033459827e-03 -1.1043562743765641e-03
      -1.4318982156896010e-03 -1.1471969312865490e-03
      2.1773329310063234e-03 -4.4705140376222175e-04
      1.3105611913593548e-03 8.1452422500496785e-04
      -9.1366296202897111e-04 2.0449186931324444e-03
      -1.4560454963189497e-03 1.8471579754772592e-03
      -1.2587707379805048e-03 -1.5031651943262245e-03
      2.3559195685230838e-03 -2.0973333356081193e-03
      1.1055320187090792e-03 2.2466733934783725e-03
      -1.0369560821572572e-03 -2.0729641523326596e-03
      -2.5725051391105183e-03 1.8501716763918469e-03
      1.4152677589054300e-03 -1.4969440594876577e-03
      3.9977425973761183e-04 -5.6343605289390297e-04
      -2.4625254994789605e-03 -5.2231688693838124e-04
      9.6327589326202488e-04 1.6089057456014990e-03
      1.7188050368139910e-03 -2.5163019297121580e-04
      -7.5506563896843071e-05 1.4521507289266069e-03
      1.8574904917527992e-04 -1.0509141955589495e-03
      -9.3023880985647160e-04 -2.0139141162951579e-03
      -1.4626053733747875e-03 1.7804692234739154e-03
      -1.0704200659513896e-03 -9.8626957586166815e-04
      -1.7319874843055476e-03 7.8345758797214839e-04
      5.5136955996922411e-04 1.3119419476491814e-03
      9.5378771390859142e-04 -1.1917524974114041e-03
      1.9075631831270469e-03 2.1677159175003814e-03
      -1.7479292680582246e-03 2.3388175365901915e-03
      -1.4414672328941158e-03 2.4868870447708391e-03
      -3.6368173046095998e-04 -2.1650288096681865e-03
      3.6176008094722134e-04 -1.9873334752539616e-03
      -2.5534401780306368e-03 -1.2356369717150067e-03
      1.5754160199984268e-03 2.0326737549197061e-04
      2.0704191576747257e-03 2.4541206103737821e-03
      -1.1129360633313013e-04 -2.5815101940882126e-04
      9.7799013941220810e-04 -2.1934174091139975e-03
      -1.5716432145992126e-04 2.4343539637844123e-03
      -5.6925812267788402e-04 -1.1063926488086289e-03
      -1.0589620961131262e-03 9.3560769119807239e-04
      2.0668680765194825e-03 1.5844745591952055e-03
      -5.6650202600989918e-04 -2.0296746044154049e-03
      -5.7459713064450134e-04 2.4229139811697362e-03
      -9.7908102784597805e-04 -1.4044535760038119e-03
      5.3885818634431710e-05 7.3332943086578219e-04
      1.2987625377323380e-03 9.4696911404761541e-04
      1.6466375797577881e-03 1.5725843182727206e-03
      1.2627209731022745e-03 3.6626579495774872e-04
      -4.5439681165526278e-04 -7.5170349193030416e-04
      -1.4771357314612963e-03 6.4382074620160520e-04
      2.0053240151096312e-03 1.6367624519122281e-03
      1.6429713666423501e-04 -1.6791105269938558e-03
      7.2402858495094580e-04 -8.9230933306759972e-05
      2.0985298570541612e-03 -9.3918047098428506e-04
      -3.2793165882070009e-04 1.5443748013422263e-03
      -7.7460306445195431e-04 -9.4644377074727887e-04
      2.4800196484244612e-03 -1.3037593140479181e-03
      -4.7615185133329630e-04 -1.5264765861654882e-03
      1.0522199353390413e-03 -2.5152948663925388e-03
      7.3848117129245790e-04 1.4683991932584002e-03
      2.2489098402212263e-03 -6.1216842800474814e-04
      7.3480674092816676e-04 -2.0921404743633855e-03
      1.7519260197886527e-03 2.3792654843926317e-03
      1.3762407255399945e-03 1.7461977553925800e-03
      -2.9916122920491741e-04 -3.0168951901389956e-05
      1.3930016051208713e-04 -2.4545563503154851e-03
      1.5346323445638969e-03 2.2455439994093561e-03
      -3.1973411084662004e-04 -2.3270237951949733e-03
      -9.3780133005073101e-05 1.5382390209741025e-03
      -2.4306981660113529e-03 -1.4272570270740994e-03
      -1.7420696380540757e-03 -1.0796026164722661e-03
      -1.3322223110427849e-03 8.2734879981201490e-04
      -5.8772278720903846e-04 -1.5874357646061318e-03
      -1.9155059660446504e-03 -1.1673135256965142e-03
      3.1931752453075190e-04 9.1336929743161290e-04
      -1.4662879602856513e-03 -3.8316582851188132e-04
      -2.3273859168720123e-03 -1.3112664547423577e-03
      -1.5028799185543885e-04 6.8402027999858771e-04
      4.7662085773851349e-04 2.1087952070941319e-03
      -1.4121940848234634e-03 2.3055922470430878e-03
      2.1372884207629303e-03 1.2852749441276056e-03
      2.4426224454652994e-03 2.1346898084264099e-04
      -2.0652118828283196e-04 1.8543064392563566e-03
      -1.1418663523841770e-03 -2.1339647616595503e-04
      1.2701827318841003e-03 2.4734774443696617e-03
